%YAML:1.0
my_nn: !!opencv-ml-ann-mlp
   layer_sizes: !!opencv-matrix
      rows: 1
      cols: 3
      dt: i
      data: [ 70, 80, 3 ]
   activation_function: SIGMOID_SYM
   f_param1: 6.6666666666666663e-01
   f_param2: 1.7159000000000000e+00
   min_val: -9.4999999999999996e-01
   max_val: 9.4999999999999996e-01
   min_val1: -9.7999999999999998e-01
   max_val1: 9.7999999999999998e-01
   training_params:
      train_method: BACKPROP
      dw_scale: 1.0000000000000000e-02
      moment_scale: 0.
      term_criteria: { epsilon:9.9999999999999995e-07, iterations:10000 }
   input_scale: [ 4.2725464198108716e+00, -3.6656426818254082e+00,
       1.5725138415605379e+01, -3.0610266462950295e+00,
       8.0126917493043521e+00, -2.8148870442384792e+00,
       3.0737987702088105e+01, -2.8129952583084737e+01,
       2.6105253741826839e+00, -2.5553021690600488e+00,
       5.3106385943746801e+00, -4.5105090301785742e+00,
       1.4286517402194010e+01, -2.6834914721723937e+00,
       5.5646115276368100e+00, -2.0293783315471448e+00,
       1.6956417150781423e+01, -1.5354484787827214e+01,
       2.3884248986216239e+00, -2.2645630229365943e+00,
       4.4072339291767548e+00, -3.7543542356136275e+00,
       1.5038611612978062e+01, -2.9389053177356579e+00,
       6.9421934421675662e+00, -2.5055076332652169e+00,
       2.1134246455490086e+01, -1.9174443393491856e+01,
       2.1098165426412860e+00, -2.1123009557653956e+00,
       3.2483997986210005e+00, -2.0781151801702165e+00,
       9.6797518952517354e+00, -1.9377130863357492e+00,
       4.3652452472377155e+00, -1.5694460166286395e+00,
       1.1489496379766017e+01, -1.0257877534259274e+01,
       1.6292055268721404e+00, -1.4433076795036881e+00,
       4.6040658851469622e+00, -3.9856109972540548e+00,
       1.6257880165820033e+01, -3.0656360119646249e+00,
       7.6403448852142279e+00, -2.7016284961985755e+00,
       2.7619777070470871e+01, -2.5211202512781327e+01,
       2.2786433024025765e+00, -2.1472042189985068e+00,
       3.2435095753614287e+00, -2.6093253590172956e+00,
       2.2624215410650130e+01, -2.0303392005312118e+00,
       1.8432523259779671e+01, -2.7495492146904219e+00,
       8.0105610841574972e+01, -7.7604305358430565e+01,
       2.2564724470671833e+00, -2.1128547004080955e+00,
       3.8878980771668608e+00, -3.2672298828759709e+00,
       5.2445668119320416e+01, -1.2564370526423536e+00,
       8.5862620546212995e+01, -2.8443606349890946e+00,
       3.7379567124954735e+02, -3.7170560396645635e+02,
       2.8813652104457472e+00, -2.6387715176742668e+00,
       6.0107098623944051e+00, -5.5019189769277839e+00,
       2.7299776559474871e+01, -3.6984398022318361e+00,
       1.2706357767711994e+01, -2.9512717812547682e+00,
       5.8908038077482402e+01, -5.6097034095974649e+01,
       7.1578036309074369e+00, -5.2351817455337395e+00,
       6.6024851911057887e+00, -6.1077940703330862e+00,
       3.1796448199891429e+01, -3.9002624798794421e+00,
       1.4874074670066539e+01, -3.1051701421674838e+00,
       6.8749722409173131e+01, -6.5854231354195235e+01,
       6.4323038292264272e+00, -4.6715400877900857e+00,
       3.8705482979424759e+00, -3.2178178693686266e+00,
       1.7869464885642362e+01, -3.4349936098960550e+00,
       7.8486676183546020e+00, -2.8497905137348196e+00,
       2.3329566414558720e+01, -2.1160451805157827e+01,
       2.0001011105445605e+00, -1.9833641504206432e+00,
       4.4010452025182580e+00, -3.7796715794996043e+00,
       1.9555921663041879e+01, -3.0056452665854625e+00,
       7.8770472133450591e+00, -2.2071037303299987e+00,
       2.3938809740411880e+01, -2.2340139333390994e+01,
       1.8953749308114793e+00, -2.0630441322690567e+00,
       4.9586122085631317e+00, -4.4998197942700457e+00,
       1.5018459281866413e+01, -4.4275883675694194e+00,
       7.4570112639046764e+00, -4.0707003929402790e+00,
       2.9847088669154061e+01, -2.5810616772504023e+01,
       2.0172515949668668e+00, -1.2240844675772773e+00,
       6.1910696252140713e+00, -5.6262901214131187e+00,
       1.6121483667156870e+01, -2.9864711918408013e+00,
       7.7703848502354687e+00, -2.6601393353593505e+00,
       3.0373740156556927e+01, -2.7942657619931335e+01,
       2.1366534365564886e+00, -2.0254125298708892e+00,
       5.5275095529641698e+00, -4.9112767733186766e+00,
       1.6065860474923277e+01, -2.9561207630412456e+00,
       7.3030160855019854e+00, -2.5150877965971050e+00,
       2.8204920434159163e+01, -2.5874311811723786e+01,
       2.4534372644878477e+00, -2.4033500743371525e+00 ]
   output_scale: [ 5.2631578947368418e-01, 4.9999999999999994e-01,
       5.2631578947368418e-01, 4.9999999999999994e-01,
       5.2631578947368418e-01, 4.9999999999999994e-01 ]
   inv_output_scale: [ 1.8999999999999999e+00, -9.4999999999999996e-01,
       1.8999999999999999e+00, -9.4999999999999996e-01,
       1.8999999999999999e+00, -9.4999999999999996e-01 ]
   weights:
      - [ -2.3554952217553975e-02, -1.7408981858954078e-02,
          -2.2573901983030411e-02, 2.3033539790487109e-02,
          -3.8989181080804256e-03, -2.9544325408569572e-03,
          1.1958745763813259e-02, -1.4223661028497018e-03,
          1.7112957425251343e-02, 1.7085164448902557e-02,
          1.8210644924254008e-02, -2.6788282198821223e-03,
          2.0448185782067810e-02, 1.9499548802627446e-02,
          -2.9407118442277076e-03, 2.3796028034926909e-02,
          1.3557034542782946e-02, 7.6489102685464794e-03,
          -1.0390646476107331e-02, 1.9461476405829438e-02,
          -1.0442731352441921e-02, 2.8420981404993061e-02,
          9.9580183075292823e-03, -2.3865482114057215e-02,
          -2.1655913340565885e-03, 5.9198806336458929e-04,
          3.3700653847841288e-03, 4.4135790815773399e-04,
          -5.7270306457222198e-03, -2.5900274838658931e-02,
          2.7687946988394083e-02, -2.8624880713051085e-02,
          2.7862865423856232e-02, -9.8596575138588504e-03,
          -2.0433196000811452e-02, 1.1668963701071036e-02,
          -1.7400909878116048e-02, 2.8750787431332518e-02,
          2.8709654500917683e-02, 2.3733715052217233e-02,
          -2.3863323728688317e-02, 1.5709059792867096e-02,
          -1.7569592753018046e-02, -4.2939321203467329e-03,
          6.9336972118652822e-03, 6.8546122980448409e-03,
          -4.9817602067997908e-03, 2.2869433214300908e-02,
          4.0805816480936905e-03, 2.9706047252768984e-03,
          -4.4338365843544095e-03, -2.3891120199104245e-02,
          2.7226575415471927e-02, -1.8707309847919885e-02,
          1.5028864368403123e-03, 1.8475866131175096e-02,
          -4.8566103527278321e-03, -2.6231957879048105e-02,
          -6.6281721494378049e-03, 2.1066518163544993e-02,
          2.5411504411222457e-02, -2.2827636517959932e-03,
          7.7511276402580436e-03, 2.2316918299731783e-02,
          2.8178338358818292e-02, 1.4038536858465974e-02,
          5.3051134852965982e-03, 9.1432363940062271e-04,
          3.1099226332833773e-03, 2.4864721271610130e-02,
          3.0972636011990681e-02, -2.4075849258557380e-02,
          2.1303867063318213e-03, 1.0894323114465306e-02,
          -2.7132305397366070e-02, -7.2264488288582077e-03,
          3.4619192749954007e-05, -2.0143528772061665e-02,
          2.6255677016505354e-02, -2.5525197012383403e-02,
          1.7420820589883833e-02, 1.0479155203202008e-02,
          1.4089224407311788e-02, -9.1666496486094672e-03,
          -1.0179855288336814e-02, 9.5218424701698050e-03,
          -1.8783032396876013e-02, -3.3371260626616862e-02,
          -1.6415929028073161e-02, 3.0266613661978047e-02,
          -2.7943709861284315e-02, -5.7962945176179359e-03,
          1.7705339535658535e-02, 7.8330414412863033e-03,
          1.6730116559743550e-02, -1.5464463295208999e-02,
          -8.7863346005801861e-03, 1.9039017311970635e-02,
          -1.6034202425467430e-02, 7.7785465140688351e-03,
          1.8293140236391756e-02, -2.7136198830256899e-03,
          1.4366323813946511e-02, 7.8086657156307146e-03,
          2.2347883624447836e-02, -1.1829547531406531e-02,
          2.4067731148831494e-02, -3.5697622965643390e-02,
          1.6282559024590755e-02, -2.5172072794073772e-02,
          -1.9576519982987161e-02, 2.4441442800066108e-02,
          -1.8109518002817963e-02, 2.2004628995741675e-04,
          3.3064895080006478e-02, 2.5211031565049256e-02,
          -1.3862232694841855e-02, -1.2299171565428103e-02,
          1.3356614233449847e-02, 1.2580477017359176e-02,
          2.2660289349292574e-02, 1.4246822569494985e-02,
          -1.7645120132502343e-02, -3.4244496269952053e-02,
          1.5486462732878499e-02, 1.4089364928527116e-02,
          7.1210629806389746e-03, 2.5462461678936468e-02,
          2.0379218286745906e-02, -2.0459472960017220e-03,
          -2.0907542143680166e-02, 1.8737591858744521e-02,
          8.7941972639247242e-03, -2.6476667276380737e-02,
          -1.0417037297117765e-02, -2.9062295047505415e-03,
          -1.9279576068144955e-02, 7.1794924958453658e-05,
          -4.5191678620729271e-03, -1.5412821376924719e-02,
          -1.6437779596106525e-02, -1.9589272913316642e-02,
          -2.0449056389105311e-02, 3.2995536076572768e-02,
          2.1340575252325307e-02, -1.8187335163972217e-02,
          1.8538980465668351e-02, -2.6318168816812988e-02,
          -2.2702360243801865e-02, 2.8613123673142407e-02,
          2.5813737409878926e-02, 1.6712816181929092e-02,
          2.3029762204116681e-02, 2.3831165491743512e-03,
          -2.8312922010316679e-02, 2.4014939715387151e-02,
          -1.5976806871307734e-02, -6.2027143865630088e-04,
          -2.1763254567630088e-02, -1.3238849043399968e-02,
          2.1051859566722890e-02, 2.7576406981410138e-02,
          2.7852157594423430e-02, 1.4305750255206365e-03,
          2.2887609027336688e-02, -1.3251220017464357e-02,
          1.2507348916139031e-02, -1.3428499237347995e-02,
          1.8048157264666426e-02, -3.0226725923939504e-03,
          1.0201974677465605e-02, 9.5638740854542287e-03,
          -4.8666573440796978e-03, 4.6696055237750991e-03,
          5.7981421372343420e-03, 1.6298281255777668e-02,
          -2.8964128400012140e-02, 2.6527188005267856e-02,
          -5.0256582271319926e-03, 1.6423450301565709e-02,
          -2.7009785804063033e-02, -1.3490188066643618e-02,
          1.1021112820816867e-02, 2.3344245459306842e-03,
          -5.0525114995725422e-03, 2.2302407445109812e-03,
          8.6192117122087970e-03, 1.5928949691780051e-02,
          -5.6464915116533464e-03, -6.9451121431019468e-04,
          -2.7464438178353909e-03, -1.9169218739077083e-02,
          1.5191631151482390e-02, -2.1980344981309439e-02,
          -1.8355351706302613e-02, 9.9733955636032920e-03,
          -2.1305296339442947e-02, 1.1190177139951824e-02,
          -8.4360744054024373e-03, -2.9992635864200902e-02,
          1.8858296775916616e-02, 2.9033137086840567e-02,
          1.4831300806700700e-02, -2.6268834427575567e-02,
          -1.5790761673061138e-02, -2.0986164745071045e-02,
          -1.6550918642945067e-02, -1.2282066608540344e-02,
          -6.0876970437826906e-03, 3.1558612580928746e-03,
          -2.2578974619771992e-02, -1.2318645828877945e-02,
          -1.4311290619685070e-02, 2.2155739166190316e-02,
          -7.3065526289040122e-03, -1.4165121138929140e-02,
          -1.1474321206629544e-02, -2.9813322669813083e-03,
          1.9439379329037703e-02, -4.2242181590899461e-03,
          2.7370243984274161e-02, -7.5767351440550099e-04,
          5.7950034972172916e-03, 2.1794120286172645e-02,
          2.4046934934872786e-02, 5.1387618181974728e-03,
          1.0365527852681885e-02, 5.6367089006214384e-03,
          -7.4928805319690820e-03, 5.2178715457495417e-03,
          7.6455882644570275e-03, -2.2526681495311045e-02,
          -2.1999958100401576e-02, -2.4396108440803036e-02,
          -1.6320265060409792e-02, -3.7517064062686060e-02,
          -1.2327986817437967e-02, 1.6105499441327862e-02,
          4.5826095849061891e-03, -4.2047974387502511e-03,
          -9.1392647224091770e-03, 3.9852815099513331e-03,
          2.0484104662287766e-02, -7.9113790555862869e-03,
          1.8118675271995691e-02, -3.1156333755266705e-02,
          8.9454340857959801e-03, -4.6045109739082674e-03,
          -7.1248030167728980e-03, 2.2703657282041257e-02,
          1.9531484282139567e-02, 2.0855914494651021e-02,
          1.2195275121681972e-02, 1.8374889929647704e-02,
          -2.9896994561601043e-02, 2.1100774856848783e-03,
          -2.7609519764198193e-02, -1.3947444429925831e-02,
          -1.3521430301370679e-02, 1.5129549782694819e-02,
          -5.1566978115818833e-03, 2.3844481268890105e-03,
          -3.1350082876697646e-04, -1.3052832131791269e-02,
          9.3818435682310655e-03, 2.7641888153283299e-02,
          4.3347311016288020e-04, 9.2234130220199290e-03,
          -2.1911291962661795e-03, 3.5218312006964300e-03,
          1.6247865770422795e-02, -7.9006133896045404e-03,
          9.3847625159815349e-03, -4.0834291162705491e-03,
          -3.3528795500269756e-02, -2.0093998799998063e-02,
          4.6752444076116947e-03, 1.0986734175103081e-02,
          3.7603955790476555e-03, -2.8500520912416172e-02,
          2.7725703572945237e-02, 7.6161330781404028e-03,
          1.9018923807228992e-02, 1.8496933288758222e-02,
          3.1997509131722071e-02, -1.1080730426430698e-02,
          1.2834078664940561e-02, -1.3483848527610630e-02,
          -2.6647088078968820e-02, -1.7024443758661034e-02,
          -2.2700365653977560e-02, -8.8951238270272327e-03,
          1.0399541188458391e-02, 2.3868601617311132e-02,
          -9.2633428522457557e-03, 1.2092013565390348e-02,
          -1.5921364020771846e-02, -9.8586844619074146e-03,
          9.6355791968242149e-03, 1.0755276839358313e-02,
          5.0894960953015407e-03, -2.9083078741307104e-02,
          -2.4356000943611782e-02, 5.5117524510381963e-03,
          1.4758641463157641e-03, -1.9323642396844993e-02,
          -8.8352374863947414e-03, 2.2085199954912430e-02,
          8.4283114174323829e-03, -2.1875316430069090e-02,
          2.8826220739812412e-02, -5.9220638941848451e-03,
          -1.6958422735064035e-02, -1.9428329293283975e-02,
          -1.9767530797653133e-02, -1.2940346875454727e-03,
          5.0127596533638876e-03, 7.3168100813093039e-03,
          1.5483177893521922e-02, 1.7453629885836798e-02,
          1.5730434331683387e-02, -1.8872114376712535e-02,
          2.8869598348273649e-02, -5.6476588536778531e-03,
          4.2949599731726589e-03, -1.3813808582711321e-02,
          -1.7552890655369281e-02, 1.5675709190153184e-03,
          1.9202900730529032e-02, -1.9148721315004998e-02,
          1.2594834706119478e-02, 6.0868022312552728e-04,
          -8.9145432645846567e-03, -2.3515596816977287e-03,
          -2.3618081648102241e-02, 5.4945060437420878e-03,
          -3.0694873090921345e-04, -7.9191740269218616e-03,
          1.6944251501709865e-02, -3.0711460626620505e-02,
          1.4237038315969322e-02, -3.2105749699467452e-02,
          1.3291096172578638e-02, 2.9388951906286046e-02,
          -2.9015003798403799e-02, 1.4050512062727259e-02,
          1.2419543221887442e-02, -1.4909499798357243e-02,
          -1.1664114933539521e-02, -1.3977845957962668e-02,
          -1.3581012209561266e-02, 2.5521710222319163e-02,
          -9.2795198589481816e-03, -1.8435933084722078e-02,
          -1.1289522758651348e-02, 4.5706588163079414e-03,
          -6.1031035006926457e-03, 1.7572897581820065e-02,
          -1.7402399375424876e-03, 3.0854315787223363e-02,
          1.9785170458095764e-02, -1.1107958316924976e-03,
          -1.2735611387653022e-02, 2.2188505234285543e-02,
          -9.8818902890320578e-03, 1.9287976698231121e-02,
          2.6863005525296135e-02, 1.1140664088611251e-04,
          -1.6457367760131327e-03, 5.4216057636290588e-03,
          -2.4156800110640163e-02, 2.5269210455647827e-04,
          -3.3115853670651432e-03, 7.3343014658396807e-03,
          -1.5356093718529185e-02, 1.5102387203717533e-02,
          1.4854264747538860e-02, -8.2784560146344881e-03,
          -6.8095883735162172e-03, -1.5443828030327820e-02,
          -1.5331455917314983e-02, 2.7831282980714536e-02,
          -1.1087258759817984e-02, -3.1189273564979327e-02,
          -3.4097782209263891e-02, 8.8970013944190199e-03,
          -2.0296776997547864e-03, 1.5536391299702501e-02,
          -5.2457854149075573e-03, 1.3002248893126902e-02,
          2.7764266762067471e-02, 9.6648703710724270e-03,
          1.0467251434223557e-02, 9.4696545981078246e-03,
          3.5889288576609682e-02, 3.0940347406739843e-02,
          -3.6319743342135322e-02, 1.8759688497349658e-02,
          1.4048118893606186e-02, 2.6397343512003279e-03,
          2.4256335437953160e-02, -4.8981983017240558e-03,
          1.7833369315012979e-02, 2.2861220779517286e-02,
          -2.3894195816431846e-02, 5.8914685637926154e-03,
          2.3508112014555684e-02, -1.3015658639098957e-02,
          1.1833418022904147e-02, -7.8206663202852050e-03,
          -7.6434332822355338e-04, -4.3116845439432954e-03,
          1.4528870983061290e-02, -1.7388000437889770e-02,
          -9.8281886369677666e-03, -4.0849287876425455e-04,
          -1.8494436040449393e-02, 9.9214182793346452e-03,
          -1.3019583375245381e-02, 2.3391467335220763e-02,
          -2.4065954444529660e-02, 1.8013036851042087e-02,
          -1.1169316488038480e-02, -3.4009799242199067e-02,
          3.6109547225876334e-03, 1.8695461909242744e-03,
          2.2185156167371902e-02, -1.8269973917458368e-02,
          1.8044878380698359e-02, -2.6337668872018400e-02,
          2.9692038023087695e-02, 1.6620305326199433e-03,
          2.6347390712465030e-02, 2.7260936396707992e-02,
          3.6141971831774596e-02, -4.8288286159305013e-03,
          -2.1350875186699522e-02, 1.8644749741452183e-02,
          2.1991072649704790e-02, -1.6718759018008265e-03,
          -4.6113450299371857e-03, -9.8586761759063141e-03,
          2.0174729634203936e-03, -7.0496709240350924e-03,
          9.0680829665624931e-03, 1.6945091791428731e-02,
          3.4916712968821634e-03, -2.3792035893339666e-02,
          1.2856858892825913e-02, 4.9661203058642975e-03,
          -1.2746949241965391e-02, 7.8012420914629001e-04,
          -2.6631408375660935e-02, 5.3816913129472645e-03,
          -9.9066349631583908e-03, 2.5967661086267115e-02,
          -1.3128617979900045e-02, 2.0179384178762815e-02,
          1.4929622735617645e-02, -3.4099168105521521e-03,
          1.3376640139509902e-03, -8.2913578913969034e-03,
          3.9169414693518482e-04, -2.4653522247866364e-03,
          -1.9442550687513911e-03, -2.0036305516786319e-02,
          2.8713436712788178e-02, 1.0889943050201713e-02,
          -1.4824078490370794e-03, -1.8336814762041933e-02,
          8.4895715893251646e-03, 2.2590329189910250e-02,
          1.4657382778802578e-02, -4.4400436999956008e-03,
          -8.1820403384555915e-03, -2.5661624011552003e-02,
          3.6697607410367081e-02, -3.9119671020591350e-02,
          1.5491526600776788e-02, 1.0579385304739543e-03,
          2.2278380279685569e-03, -7.0792002857262490e-03,
          -5.3980153365018315e-03, 2.2998739846461478e-02,
          -2.1543461047052747e-02, -3.4335816523988170e-02,
          2.3358543865957315e-02, -1.5080908245725909e-02,
          3.2135813840522991e-02, 2.9204481048430812e-02,
          1.2007919395112369e-02, 1.7548036558215581e-02,
          6.2707292515141993e-03, 2.5330122215698518e-02,
          6.0903905495541238e-03, -1.8971690077872059e-02,
          -1.1884437331537666e-03, -1.4345407417064832e-02,
          2.1034836456732025e-02, -2.1647738672888023e-02,
          -1.2602872811658096e-02, 2.1731264743635932e-03,
          -2.8298311008047687e-02, 3.3456518814139434e-02,
          2.0254107564675220e-02, -1.6007845698221713e-02,
          -1.9629802222972101e-02, -1.6742333672488247e-02,
          2.0790821397544232e-04, -1.2746056037291004e-02,
          -4.0981377372038851e-02, -9.1733417248662814e-03,
          -1.7935706315656299e-02, -2.1641094529292557e-02,
          3.5618689696783043e-02, 2.3594399586078361e-02,
          8.8345091353211856e-03, -3.5963189989802580e-02,
          -6.3245745229221443e-03, -2.0388875468153596e-02,
          3.8587662729558619e-03, -7.5407433377513797e-03,
          -1.2663677128042061e-02, 1.8337806316488944e-02,
          3.4172562317373797e-02, 2.4434400216990153e-02,
          1.8938025904022340e-02, -2.3763796763592460e-02,
          1.0335778998878758e-02, -5.6625276574041733e-03,
          1.6434069085125329e-02, 2.0828739410525342e-02,
          1.8777475882265627e-02, -9.0305190238928329e-03,
          1.6834273995062831e-02, -2.6136064749292098e-02,
          -4.6460477876949591e-04, 1.1478028123703101e-02,
          2.1681502082872839e-02, -3.1658779683248678e-02,
          -1.8523917880607940e-03, -2.7714047915199706e-02,
          3.1621586216257311e-02, -9.5188987148672761e-03,
          1.7059453374614741e-02, 4.0709310894416293e-03,
          -2.5856203276681120e-02, 1.0854756889333275e-03,
          1.5507919078066625e-02, -1.8888180940511805e-02,
          7.4991808500802122e-03, -1.1649373978125819e-02,
          -5.2299022823614552e-03, -1.8157665957650133e-02,
          -9.3614489050092016e-04, 5.1267838574214995e-03,
          -2.9236253132410130e-03, 2.5215116407067133e-02,
          -2.6757705592971349e-02, -1.5956020035102179e-02,
          1.0486854161322124e-02, 1.0445973455346940e-02,
          5.1479406541698799e-03, -1.3239631471050971e-02,
          -9.3513506703233364e-03, 1.0185210765207323e-02,
          1.7106767927919188e-02, 1.7776983976445140e-02,
          8.2679406723628578e-03, -7.2129799667124345e-03,
          -4.6311108161836978e-03, 9.5610061630737077e-03,
          2.1393362431412738e-02, 3.5813138017459232e-03,
          2.4681570514509459e-02, -1.6341586365924810e-02,
          -1.2757458108612101e-02, -6.6306764724463011e-03,
          -1.1801681694749469e-02, 2.2374936271616873e-02,
          -9.9179991841777965e-03, -1.7824181495004303e-02,
          1.4028071013500775e-02, 2.1609176555939030e-03,
          -4.8114895879959275e-03, 1.9808803743501038e-02,
          1.7452008648039283e-02, 1.0389989397503085e-02,
          -6.7795161942902100e-03, 1.7774761120571827e-02,
          1.5686937881496929e-02, -8.0681909392644659e-03,
          2.8002346134487909e-03, -7.7274753441472699e-03,
          2.5086065910176286e-02, -2.4878090064855363e-02,
          -1.4971550049659155e-02, -1.0390984472185814e-02,
          -5.1198147329431960e-03, -2.2353428566169970e-02,
          -2.0963101779609243e-02, -3.0121936427354928e-02,
          1.5512195486741414e-02, -1.9647423779405204e-02,
          2.3146109636969295e-02, -2.9096943305274941e-02,
          4.5352327180402385e-03, 1.2553508019465700e-02,
          -1.6273438462174616e-02, -1.6462953093030611e-04,
          1.5077004788559906e-02, 2.8133720350042163e-03,
          -1.2626540926138680e-02, 1.5625540272409810e-02,
          -3.2627166134889307e-02, -2.1976826548538046e-02,
          1.5498215575020952e-02, -1.4646333308087732e-02,
          -1.2453314623293337e-02, 1.9605735680949442e-02,
          1.7488777352148047e-02, -2.1604871927400578e-02,
          1.2795648307726943e-02, 1.2862806824418087e-02,
          1.0044063088034893e-02, -1.4398939311487065e-02,
          8.2937254279125874e-03, 1.9257579544490640e-02,
          -9.1533634828914467e-03, -1.5165755270304941e-02,
          7.7906411655658588e-03, -1.2346184287841221e-02,
          2.5640020701180301e-02, -8.8603616313730742e-03,
          2.3092036028804708e-02, 2.4756640351323116e-02,
          -1.9090992457970593e-02, 1.3735034356261770e-02,
          1.2300789268451059e-02, 2.6505600931422554e-02,
          -7.6667720720337527e-03, -1.5596672007195946e-02,
          -3.1553203612651452e-02, 2.2611325311200185e-03,
          -2.0324204641432562e-02, 8.9550091731017117e-03,
          6.1235399797442813e-03, -1.5248602056822425e-02,
          -2.4508321249051029e-02, -1.6545832316356528e-02,
          -7.3985351535815098e-03, 2.8523079248866458e-02,
          1.1421368291922012e-03, -1.9593189089626389e-03,
          -1.1142025839661455e-02, 2.3827745582491955e-02,
          -6.5503220075309506e-03, -1.8274259385710163e-02,
          -1.6974041051220232e-02, 1.8327132698772865e-02,
          1.7175539161422775e-02, 2.7752233323308059e-02,
          1.9270122257354524e-02, -2.8327683589605253e-02,
          -1.3535551458106738e-02, -6.8318715605252371e-03,
          1.8208663699016265e-02, -1.6879059197014545e-02,
          -9.3797681576322164e-03, -1.5886294475008965e-02,
          -1.1890625767941370e-02, 5.6735127523657855e-04,
          -1.5206401413605039e-02, 8.7711775053244644e-03,
          -1.7129270352199012e-02, 2.1695254280148783e-02,
          -5.4355964113574576e-03, -8.1013267357166064e-03,
          1.0350958772686622e-02, -5.4883819810585301e-03,
          2.2408868417756571e-02, 1.0726228220114728e-02,
          -2.4808946714392995e-02, 7.9782248672854786e-03,
          1.1108213804416386e-02, -5.4162703789908881e-03,
          2.0356797011199884e-02, -1.3042708676521004e-02,
          -3.0950342831589841e-03, -5.6399597833702575e-03,
          -1.9766069919440479e-02, 7.3353980365985999e-03,
          1.0294521744404169e-02, -1.7757430852003396e-02,
          6.7235078155840951e-03, 1.9908224156647586e-02,
          1.5913974907155376e-02, -3.2397130612233642e-02,
          -9.1709401086546051e-03, 2.6996675549072747e-02,
          2.0785802240642914e-02, 4.2627715420841652e-03,
          -1.5724557685958710e-02, 3.6496185695946204e-02,
          2.9831295055731434e-02, -1.1633241053181659e-02,
          -2.8376830460643087e-03, -1.7718068497789969e-02,
          4.3400019602290383e-04, -3.0204312588173601e-02,
          -3.0139641982475096e-02, 9.9082875951197122e-03,
          1.8505941065749782e-02, 2.8134336157381690e-02,
          -5.5996416752943723e-03, -1.2164001948324673e-02,
          -9.5125144644165622e-03, 1.2395076262199189e-02,
          -2.4052158571431684e-02, 4.0510321503249352e-03,
          2.9664614842998607e-03, -3.1484554487205184e-02,
          -1.4270798203412703e-02, -2.9437314104845690e-02,
          1.2719542706039434e-02, -1.3738899045439120e-02,
          -2.3749638942960602e-02, 2.4460449277172187e-02,
          8.0522195536599020e-03, -6.7527323582369731e-03,
          3.9282593870474336e-02, -3.1649603438310095e-02,
          2.9803014537804801e-03, -5.6915268069628981e-03,
          -6.6427839528530258e-03, 1.9738390326867142e-04,
          1.1078582991931759e-02, 3.0114280972718243e-02,
          -1.0381646761397438e-02, 3.6896139251095685e-04,
          3.1537020625850953e-02, -2.8526327658389822e-02,
          6.4962635821370412e-03, -2.0858924476579678e-03,
          1.2730463545739991e-02, 1.9965770801504295e-03,
          -1.6130294879763443e-02, -6.5527541950558240e-03,
          -6.6735437651221363e-03, -2.2763830951916267e-02,
          -2.9756341799462821e-02, 2.4301771456216362e-03,
          -2.4150420611685531e-02, -2.7452486654940089e-03,
          -7.7564899514717235e-03, 3.5909642348701899e-02,
          -1.6569667256269915e-02, -2.9968524514997598e-03,
          1.2773115206910244e-02, 1.7189414292431170e-02,
          3.5831299429102792e-02, -2.4136675227385510e-02,
          1.3079771468945999e-02, 1.8652028593141509e-02,
          3.9353257789182694e-02, -2.0592287348445699e-03,
          2.1663200701226640e-02, -2.3081990253273755e-03,
          1.8361563597931327e-02, -1.2125844833498680e-02,
          -2.1751164188055970e-02, -4.1579743052183073e-03,
          3.9539851717355903e-03, 1.1232430841332287e-02,
          -5.7239307127879332e-03, -2.8910021183881449e-02,
          3.2043760213474226e-03, -9.0264426988226447e-03,
          2.8250358534008004e-02, -2.8876011230151342e-02,
          -3.1943658260063915e-02, -1.3407708244442476e-02,
          3.3169470785810125e-02, -4.6073859657050062e-02,
          -4.3648852972012729e-03, 2.4688425295900023e-02,
          5.9272657766475433e-03, -2.4113097803769232e-02,
          3.5812726052733446e-02, -1.3563496316655370e-02,
          -1.9092078865323898e-02, -1.5625219778310377e-02,
          9.3012255164781205e-03, 1.4991435615168840e-02,
          6.6711075850493951e-03, 3.7156591221557352e-02,
          -4.3988713106210352e-02, -1.1176526259348821e-02,
          -1.5013272457958219e-02, -2.7751399207626225e-02,
          7.4893250320916711e-03, -6.7060761539082707e-03,
          1.2812689044485036e-02, -2.1834215720498602e-02,
          7.1813132105428982e-03, 3.0593552241705954e-03,
          -1.0359319670613765e-02, -7.5355323630558026e-03,
          2.3702281349024111e-03, 6.6405520903360955e-03,
          -3.0767681983386991e-02, 1.7447769980397414e-02,
          1.5536428053895459e-02, 1.7630538346262211e-02,
          2.6256333341283453e-02, 1.3235642090800075e-02,
          4.9833738818265264e-04, -1.3441402248606250e-02,
          -2.5073025734658007e-02, -9.4181823021932589e-03,
          1.4339289116402542e-02, 2.3712886524392025e-02,
          2.9325802493621329e-02, 1.0707385952238621e-02,
          -1.3719206899523441e-02, -9.4034634595210297e-03,
          3.1668268468761973e-02, -7.5413612144273091e-03,
          -9.2326432786300986e-03, -8.0740289024063844e-03,
          1.4451242234653843e-02, 5.1341500499586220e-03,
          1.9897353683913845e-02, 2.6147002028198911e-02,
          -1.6862471554501608e-02, 2.5134321826531143e-02,
          1.9537588242539542e-02, 6.4286752225178271e-03,
          -3.1638264412306764e-03, -1.2667338031389110e-02,
          -1.0063799037318211e-02, -1.0872040828347309e-02,
          5.6416632941425262e-03, -1.2960887408095163e-02,
          -1.6554577505213892e-02, 1.7204955216876719e-02,
          -2.2703383261468506e-03, 2.2336545874911025e-02,
          -1.6495487981956058e-03, 2.7848624043738703e-02,
          2.0261580588571075e-02, 1.1035088692491483e-02,
          1.6751905621040241e-03, -2.3577841565631068e-02,
          2.8893954753893372e-03, -4.2239411253887282e-03,
          -3.7092338253570849e-03, 9.8626219582651151e-03,
          7.3457409226310227e-03, -1.0658442674697231e-02,
          6.7582836546765199e-03, 1.7790798597923867e-02,
          -2.0073069648058821e-02, -1.1680802637230110e-02,
          -1.5437422808464652e-02, 1.7752217539008797e-02,
          6.8458394173294033e-04, 1.1953583464583660e-02,
          3.1417765017836526e-03, -1.0404487971328114e-02,
          8.1510402785879357e-03, 9.8281781044920798e-03,
          -3.4713400047941593e-03, 2.6044890193231592e-03,
          -3.4321399991352530e-02, -1.0527064649673096e-02,
          -1.7575400014230122e-03, 2.2706058140244942e-02,
          6.4104686092094243e-04, 2.0445526204209020e-02,
          -2.6806644041624320e-02, -7.1580861353107183e-06,
          -1.8175309709835458e-02, -2.5362374153973490e-02,
          8.8284023848994430e-03, -1.1027061476061969e-02,
          -2.1963470951821829e-02, 1.4682515121664236e-02,
          8.5106841706155140e-03, -3.2466670768708772e-03,
          -4.0955782973238443e-03, -1.6521536987970594e-02,
          -1.5275621838597279e-03, 2.7724379190492733e-02,
          3.4421644173064946e-02, 1.9446215557165223e-02,
          -2.4169072591036012e-02, -9.6153858127673159e-03,
          9.5307203041454618e-03, 1.6455507579808612e-03,
          -1.9091815512380310e-02, 8.1075031355028453e-03,
          -2.5781617672063642e-03, 3.0159072874450500e-02,
          -7.8626985211765667e-03, -7.2016036557542348e-03,
          1.8751097364978618e-02, -2.6948035960867905e-02,
          -3.0973524146949309e-02, 1.0769015187026785e-02,
          -2.1237067524591192e-02, -1.0854904105165973e-02,
          -1.2262644245875500e-02, -4.7242655414370966e-03,
          1.4781993983023014e-02, -4.1180693034432040e-03,
          2.9051707717531634e-02, -2.4200972500191171e-02,
          -1.9458476665873834e-02, 5.7884573861116126e-03,
          -1.0756063559082422e-02, 6.7050186803179618e-03,
          -1.6310317352625281e-02, -2.8949974469202441e-02,
          6.9043985388885102e-03, 4.2123847533447585e-03,
          -6.4856248695977173e-03, 1.0091714359645086e-02,
          2.2509654100315909e-02, 3.5707947881612252e-02,
          -9.5930206582957207e-03, -3.6411335884267869e-03,
          1.5754004446044682e-02, 1.1149421683747942e-02,
          9.9529901491709517e-03, -1.2849825114122944e-02,
          2.2563850049861865e-02, -2.3078749572485534e-02,
          2.7680797421254070e-02, -7.7617165996699579e-03,
          1.3958687956235777e-02, -6.7540416593935611e-03,
          1.8838252069650754e-02, -2.4816347568161423e-02,
          -2.8823989529033544e-02, -1.9727347819239946e-02,
          -2.0381629896866545e-02, 7.5767487763220573e-03,
          3.7508385373167148e-02, 1.5707122917334466e-02,
          -6.2855065908431441e-03, 1.9495211060791409e-02,
          -2.9209444246218342e-03, 2.4420677696320069e-02,
          -2.7064574256139843e-02, -8.4459703822155341e-03,
          -3.5032840797031742e-02, -1.7739839331990935e-02,
          -1.6929667991408461e-02, 1.5278727479658828e-03,
          7.0990840115005317e-03, -3.0793840147931863e-03,
          -8.1809486045277061e-03, -9.4770581611054276e-03,
          3.0060197051467275e-02, 2.4772573221250028e-02,
          -1.0931866788190308e-02, -7.4291419001532117e-03,
          1.7591165751234931e-02, -2.7409171460224903e-02,
          1.3197714835465704e-03, 1.6839393318688996e-02,
          -1.6398831467428352e-02, -2.1904475519681454e-02,
          -2.3608371628378044e-02, -8.1199081855472723e-03,
          -2.6060167515883713e-02, 1.6918829279403642e-02,
          3.0540775866239198e-02, 1.6154846027359018e-02,
          -4.2131668878924635e-03, -6.2334685464788776e-03,
          -2.8037772601749590e-02, -2.6151752036853423e-02,
          2.2889970493531340e-02, 2.6055248873301535e-02,
          1.7420760909841758e-02, -3.2169841800560183e-03,
          -1.3287207251174849e-02, -2.7448783704234349e-02,
          1.0935390811078773e-02, 2.6956249093769403e-03,
          7.5522126162360596e-03, -2.9118525084990101e-02,
          -2.4441106487562106e-02, -3.3742752649530672e-03,
          8.6852363779587709e-03, 1.1866854276232783e-02,
          -2.5594423354794647e-02, -7.0614691726221383e-04,
          2.3341135614279788e-03, -1.3743613216727305e-02,
          1.8805135186896887e-02, 2.7113815859763468e-02,
          1.1497387446772388e-02, 2.4514204006754105e-02,
          -1.8786338569075044e-02, 1.7791299553728677e-02,
          2.1899407259676981e-02, 2.9798096671913202e-02,
          1.9896633072558133e-02, -3.2160288077565449e-02,
          -2.3567132719125264e-02, 2.0906987902092770e-02,
          1.2039411961669435e-02, -1.1520806852018435e-02,
          -2.7298668161833402e-03, 1.3964196857173615e-02,
          -2.4528848864200013e-02, -1.5794551985749698e-02,
          -7.3896782157356804e-03, -2.2732492685419701e-03,
          4.8573128084544726e-03, -1.1575815234940169e-02,
          8.6314609639875708e-03, 2.0684379800760273e-02,
          4.2170085828937415e-03, -1.7676186017371347e-02,
          3.0263832175354596e-02, -2.2498878409860424e-03,
          2.9894345241240339e-02, -4.4043887755507369e-03,
          -7.2592800179979555e-03, -2.1278787491352497e-02,
          -1.3603885738156542e-03, -2.7443272521535594e-02,
          -2.2866147842572931e-02, 3.8408116053872208e-03,
          -1.9592737371935183e-02, 1.4459987905583702e-02,
          3.8420046406605003e-03, -2.2587375768703271e-02,
          -6.0750036200497056e-04, 2.4821377078964563e-02,
          9.0280913694640533e-03, 2.0248013345226554e-02,
          -2.6117232190964883e-02, -2.2248574391932719e-02,
          1.3508418491654428e-02, 1.4362557942423831e-02,
          -2.1443757533286666e-02, 1.9623904072626978e-02,
          -4.2928884806494602e-03, 2.1536138825609820e-02,
          -1.5402552880259520e-02, 2.0526409963631011e-02,
          9.6205460993238384e-04, -2.1572142615748545e-02,
          -4.8969075000433499e-04, 1.2563814246480877e-02,
          1.9648116290709151e-02, 3.7874058420639322e-03,
          2.9469325297617033e-02, 2.3930860135053009e-02,
          -1.4717147141833099e-02, -1.1124527519342824e-02,
          5.5014087448602804e-03, -6.1295015866604787e-03,
          1.3198420363275553e-02, -9.8542701935102010e-03,
          -1.4393199507940059e-02, 1.6599924256559033e-02,
          -2.5362193324503807e-02, -9.2614228308446483e-03,
          -2.5222189531335457e-02, 1.9556634114559369e-02,
          1.0778937642970924e-02, -2.4303815813483891e-02,
          1.1469576729824816e-02, -1.2689709554201140e-03,
          -2.6081952733657703e-02, -1.3158192397482666e-02,
          -2.0871934809129356e-02, 4.0913796556929999e-03,
          7.0447592108232454e-03, 2.5178594315550799e-02,
          -2.6929851256805856e-02, -1.9106343223015940e-02,
          1.1830017209391341e-02, -2.3843240412720561e-02,
          2.2463596539587568e-02, -3.0335641754658499e-02,
          -2.3506649028615871e-02, -1.8581632117796024e-02,
          1.9047022649361752e-02, 9.4924403578730537e-03,
          1.3365275945629560e-02, -1.7445490304055081e-02,
          -2.0752114367926729e-02, -1.5020067980672777e-02,
          1.5886664524952448e-02, 1.5054943981098445e-02,
          -2.2806394790505297e-02, -2.4133858001394958e-02,
          -1.8938593329692697e-02, 1.0324237146254265e-03,
          1.1819844046387964e-02, -1.6088672516532180e-02,
          2.8078022755183691e-02, -2.4970390797876005e-03,
          -1.2821686246030480e-02, -1.9085473406072612e-02,
          1.8776442865676882e-02, 2.9337076521834371e-02,
          -7.1717203177649137e-03, 2.2628550886687814e-02,
          -2.2786579294625731e-02, -1.5058307457506779e-02,
          2.9007237594221174e-02, -1.3455312773136472e-02,
          -1.0292607681675369e-02, -2.5744855801292628e-03,
          1.3199095166789250e-02, -8.4172958335883615e-03,
          -2.9806453557011288e-03, 6.4695272873366277e-03,
          -1.9766084173134770e-02, 1.0120216897730535e-02,
          1.9967092993887683e-02, 2.1644495800245953e-02,
          -7.6962131602946694e-03, 1.0887924719958718e-02,
          -5.9609765211868651e-03, -9.2745483762294335e-03,
          2.2684889624310391e-02, 1.7219898874876596e-02,
          3.1617116620893622e-02, 7.0336636408036470e-03,
          -2.3667097860573798e-02, -1.1827013817660563e-02,
          4.8343275800730497e-03, -2.8468928555708064e-02,
          2.0018734304482894e-02, 1.6742321917386845e-02,
          -2.2312042068819055e-02, 1.6705084396276347e-02,
          -3.2830061477918893e-02, 2.0512817189019045e-04,
          -1.8869871763884136e-02, -1.6137163799058413e-02,
          -3.8956399670916075e-02, 2.1674985022212385e-02,
          -2.1972797145477157e-02, -2.8670066586925835e-02,
          1.2432392806065538e-02, -1.1870583830323873e-02,
          -6.0019266397206891e-03, 1.2079855710221795e-02,
          1.1177509785205344e-02, -1.5809412591189571e-02,
          -7.0815725112484433e-03, -2.3531650300189895e-02,
          -2.9091087610104553e-03, 1.0129918906626401e-02,
          1.9192983332299178e-02, -2.9124645557080869e-02,
          1.7092562539203528e-02, 1.2783233095048026e-02,
          -1.7279250761452095e-02, -7.1686759465003263e-03,
          1.4565803032324468e-02, -2.8128886067463162e-02,
          3.5337081559246454e-02, -2.5495328721070513e-02,
          -2.1762951623628415e-02, -2.0916118986792583e-03,
          -2.3236625283002230e-02, 2.1282046919388686e-02,
          -1.9251481813796229e-02, -1.1782965513032113e-02,
          2.4841866097584805e-02, -1.6200089737721492e-02,
          3.6695749162872862e-03, -2.6003004967202509e-02,
          1.5756970363537083e-03, 2.9107628482798386e-03,
          1.6897710427529692e-02, -8.2923595138265967e-03,
          6.1064245385779106e-03, 3.7200223140732604e-03,
          1.4077785769533889e-02, -2.0440074233886003e-02,
          1.0572354959291902e-02, 2.2714731074719878e-02,
          1.8203469171446614e-02, 1.5724203266838748e-02,
          -1.5243137294383301e-02, -1.0263623974951716e-02,
          -1.8578759805364147e-02, -2.3175893890301402e-02,
          1.2831784901655478e-02, -5.6765541013212382e-03,
          -2.0576618023491984e-02, -2.1043606562043970e-02,
          9.2081802391926742e-03, 2.8382758844596595e-02,
          8.7722195716224520e-03, -2.1159281322979786e-03,
          1.6351070886719058e-03, -1.3726925601147647e-03,
          -2.1729961626782531e-02, -1.1316496171057781e-02,
          4.3448809263187359e-03, -2.1439534403324717e-02,
          2.0572221018227588e-02, 2.3291506631243266e-02,
          -5.4135826951330571e-03, -1.3485784238084198e-03,
          -7.2156828263440699e-04, 2.2898224648721998e-02,
          -1.4879050093279785e-02, 3.6993093792679729e-03,
          -3.4149419305190324e-03, 2.0998108731544039e-02,
          -2.9448505708781990e-03, 8.1260796723154529e-03,
          -5.3290445214338482e-03, -3.3411826769498762e-02,
          3.0372744833101463e-02, 2.0921214600898477e-02,
          -3.4761374803039932e-04, -1.7159808822777668e-02,
          1.3075397726842679e-02, 4.9826726150691914e-03,
          1.6634884858032668e-02, -3.0625583119218029e-02,
          -8.5464446522866243e-03, -6.0519236835682227e-03,
          2.2748321413683090e-02, 2.4443532011612052e-02,
          -1.6242754468995629e-02, 1.5706554466206554e-02,
          2.1388523491117865e-02, 1.4373230125905858e-03,
          -1.2856363354655360e-02, 4.5891555609705556e-04,
          3.2158736707987722e-03, 5.3676924324688631e-03,
          9.0003757674748820e-03, 1.8338799199166592e-02,
          -3.7617451393392718e-03, -3.1504996567853022e-02,
          -3.0230899654668648e-02, -1.4428056273955985e-02,
          2.3612053729873950e-02, -1.9635493925311436e-02,
          -2.3067444493099398e-03, 6.5692945664011593e-03,
          9.1787543187190519e-03, -1.4553228557233990e-02,
          5.0435157973070560e-04, 1.3704958758512392e-02,
          1.3877994279999186e-02, 2.1041187412185630e-03,
          -2.2933869405315339e-02, 1.0036981941349474e-02,
          -3.3539659086161038e-03, 3.0776384121327566e-02,
          9.1842322099231592e-03, -8.9654239878557349e-03,
          1.2810748278267612e-02, -1.1355163302437356e-02,
          2.1220258942776034e-03, -2.7364902859814209e-02,
          -2.0653532024907790e-02, 2.1226147237178906e-02,
          -9.7455955120903173e-03, 2.1232420949322112e-02,
          6.7057421012074623e-03, -2.6393127486712471e-02,
          1.9677046237959693e-04, -1.2999826190092111e-02,
          2.2127028487657761e-02, 2.4096886971443313e-02,
          -8.7925346037433412e-03, -1.1743288833421243e-02,
          -2.2699940892565721e-02, 1.6142468854024991e-03,
          -3.5132181335467833e-03, 2.4222196981086099e-02,
          -1.5393851294761964e-03, -2.0997391498236314e-02,
          -1.5170586145588996e-02, -5.7253735668745280e-03,
          5.4334227784355359e-03, 1.4948924185195668e-02,
          1.7885030500642586e-02, -6.1195981747945542e-03,
          -3.6386921318752692e-03, 2.2662662219741590e-02,
          6.3332186746805855e-03, -1.9453560807846663e-02,
          -1.9613927304402014e-02, -4.8360362226606149e-03,
          1.8837679877453415e-02, 2.8079479724633937e-02,
          -2.1153729944905324e-02, 4.7986829075022283e-04,
          2.3029969167936877e-02, 2.6501622167452336e-02,
          -1.0536780057814691e-02, -1.7770983974968978e-02,
          -1.2795850150988980e-03, 8.0164103824576123e-03,
          -1.2359899679797228e-02, 2.1655812534541106e-02,
          -5.0948404339645906e-03, 1.2686770476058739e-02,
          1.1751520524242418e-02, 3.0378601853684798e-02,
          -1.8965586614088567e-03, 7.2712336803572959e-03,
          -2.0574660201725697e-02, -2.4274960608095229e-02,
          2.3873931019176408e-02, 8.7132916130421185e-03,
          1.0062480608105611e-02, -6.0621191223166971e-04,
          1.6198105980267984e-03, -3.1670352456555861e-03,
          -4.6488814479856656e-03, -1.3439740364218265e-02,
          1.2121713839582447e-03, 2.1812153387784017e-02,
          -3.4955262804079561e-02, -1.5395830730176545e-02,
          -1.9026944470554565e-02, -1.6233238782084838e-02,
          2.5018970919263275e-02, 1.4056037976447038e-02,
          -1.4321732576653543e-02, 2.5641955792029412e-02,
          7.5175460208506840e-03, 2.5416701812141320e-03,
          -8.0544442397965151e-03, 1.3696856236522311e-02,
          -2.7558415412365832e-02, 5.7649884441776135e-03,
          1.2582284496514679e-03, -1.2761364067049960e-02,
          -2.4210734331075626e-02, 1.0600211427284007e-02,
          9.9063592560232113e-03, 1.1388115499346714e-03,
          -2.6641868332226699e-03, 2.6352426067438626e-02,
          7.7418436555565084e-03, 2.0096990647728998e-02,
          -2.8054791990711536e-02, -1.9940685477243349e-02,
          -5.8883537837076880e-03, 2.7127173902044489e-02,
          -5.4561496281862370e-03, -1.3903529090179370e-02,
          -1.7151694514894743e-02, 3.3585970200359239e-03,
          2.5453660043996417e-02, -6.8198877236359699e-03,
          -2.6320311133484195e-02, 3.6470056385305614e-03,
          -1.8921671685049473e-02, 2.6735399325737690e-02,
          5.2057451099267972e-03, 1.7735863012310095e-02,
          -2.0741880498465433e-02, 2.9384838987082815e-02,
          -2.1660488121881708e-02, 1.4283975910262129e-02,
          3.8749400774230240e-03, 2.4826438680576376e-02,
          9.4348032133136084e-03, -2.0888199390030880e-03,
          2.2023452075178012e-02, 8.3249197658548310e-03,
          2.6779583303645223e-02, 2.3301128447788914e-02,
          -6.6976416840910493e-03, 1.8735852085046030e-02,
          -1.9852352261076192e-02, -1.7235068840469287e-02,
          -1.1661584803757508e-02, 1.2519595901065274e-03,
          -9.0970078464009622e-03, -1.1134436141080020e-02,
          -3.7622706275377664e-03, -2.6659414378059167e-02,
          2.1670985639775518e-02, 1.9682511362460135e-02,
          1.8986295074207900e-02, 2.3112173980012106e-02,
          1.6788486077747758e-02, 3.6994728060619881e-03,
          -1.8315072068057433e-02, 4.3603812407055119e-03,
          -1.7271310394963851e-02, 4.9780947568747154e-03,
          -9.9074562141526681e-03, -2.3520585364191285e-02,
          2.2959096904736302e-02, 2.1022916537385725e-02,
          6.5986935300166834e-03, 4.6972196690642936e-04,
          -1.5788934603676565e-02, -1.1702406474223983e-02,
          -1.6792273877750952e-02, 1.3411763587918221e-02,
          2.1545220900463714e-02, 1.6926187649869383e-02,
          5.3978796279038257e-03, -3.1761781818397442e-03,
          1.3562641380289359e-02, -2.3575343793046603e-02,
          -3.1914260552200521e-02, 8.7988514072882325e-03,
          -1.0504508611748032e-02, -1.1150165402767457e-02,
          -1.2075409369830273e-02, 2.0976646883858870e-02,
          2.1209847169426265e-02, -8.7721851197951513e-03,
          -9.6931985614152373e-03, 1.7409366279848289e-02,
          -2.5569745244950787e-02, 4.5716490186355277e-03,
          -1.8410557878873475e-03, 2.7740901233641892e-02,
          -1.3333024405941208e-02, 1.5299255542144691e-04,
          5.9909936167862441e-04, -6.0306249808716253e-03,
          1.6693804649466697e-03, -2.7512359802184340e-02,
          -1.7916652874545989e-02, 4.9911003010046692e-03,
          2.0841472172994261e-02, 2.7802160019974452e-02,
          5.5161039537863403e-03, 7.5799406133157643e-04,
          -9.8009803037553099e-03, -4.0247475805191583e-03,
          8.8454720407109312e-03, 1.2847958619725260e-02,
          1.5747622897191376e-02, 1.6087009105909732e-02,
          3.9330563725342611e-03, 3.0494409309988547e-04,
          -1.6330816009974429e-02, -2.7743117612742715e-02,
          -1.3708066424403071e-02, 2.7483447415497398e-02,
          2.3976918365726015e-02, 1.1715437736134801e-02,
          -4.9937151366788541e-03, 1.5063532673547603e-03,
          -2.1119422842353224e-02, -1.6867946258650325e-02,
          -3.2431836279593548e-03, -8.5232848136290885e-03,
          8.7322375569568143e-03, 1.6299799300614249e-02,
          -7.3140054310759572e-03, 2.4188624961755528e-02,
          -1.6206272877106638e-02, 5.5342319276580803e-03,
          1.4950509133268874e-02, 2.2082655640872681e-02,
          2.4219272957899766e-02, 6.6883879393087042e-03,
          2.2632364078954175e-02, -6.9670828910893740e-04,
          -1.1331892972750305e-02, -1.4710718268780345e-02,
          9.9460663056022743e-03, 8.5792531719477167e-03,
          2.2328472227772820e-02, 2.1319443106371728e-02,
          -2.1626939478389774e-02, 1.6604467105380275e-02,
          -2.2198485211309005e-02, 1.6720102160541084e-02,
          -1.7365724866653151e-02, 1.4729619505804436e-02,
          -1.5130309344732189e-02, 9.1690766427199068e-03,
          -1.7748443557987447e-02, 9.8631425219237144e-03,
          -1.8924155477078664e-03, -1.3275001187653533e-02,
          1.2385736457474020e-02, 1.0800872589475808e-03,
          -6.6873165225476712e-04, 2.6521425345612193e-02,
          -1.7482120575450646e-02, -4.4109268400246990e-03,
          2.2889897814019951e-02, 1.7675830473177532e-02,
          -1.8018738391608401e-02, 2.1282112302451594e-03,
          3.0392603586403354e-02, -1.5095483164888977e-02,
          1.8898476577362711e-02, 2.4064102190660561e-02,
          -1.9986371506102467e-03, -1.8858484242706985e-02,
          -1.5074777295936585e-02, 6.4045273445318875e-03,
          5.9510784353005381e-03, -9.5220853029642678e-03,
          8.2060988912014063e-03, -1.9914319333709973e-02,
          -2.7379278524478814e-02, -1.4143822923130859e-02,
          -1.4101135299963589e-02, 1.3664405348821467e-02,
          2.8455990239943114e-02, 9.4495744146425066e-03,
          -4.6789534487847824e-03, 6.7937669548404980e-03,
          -2.8183295682794041e-02, 2.2761984692352209e-02,
          5.7421468546664106e-03, -7.0820580229555112e-03,
          -2.2555742454488138e-02, -2.4898963558954511e-02,
          -2.6993056042313102e-02, -1.6864960061591161e-02,
          -4.6864812004368166e-03, 2.7174253093450652e-02,
          -1.3796468648594682e-02, 1.3940077931552016e-02,
          -5.7003305063544419e-03, -5.2033535090384468e-03,
          3.2116309861702101e-02, -6.7163839746817470e-03,
          2.4964750324341665e-02, -1.3219353513600452e-02,
          -2.8024672927722167e-02, -2.9752569690558544e-02,
          1.1385824145067979e-02, 2.6311313167256146e-02,
          1.7538328473585958e-02, -8.2303707964765035e-03,
          1.9553907466237624e-02, -1.0409073219075757e-02,
          -2.3304028032848593e-02, -1.4567612651495672e-03,
          -4.6902311250668566e-03, -1.2332288582134018e-02,
          -7.2532092516182523e-03, -2.1981162428632229e-02,
          2.1168106592784522e-02, -1.3768974912583404e-03,
          2.7242394769458212e-02, 6.7025925392806430e-03,
          -3.1472646262111969e-03, -1.0503766323291844e-02,
          -1.2430535861111482e-02, -1.9067829465779455e-02,
          2.5361334508609671e-02, 7.5793221986684978e-04,
          -9.7437567908888970e-03, 8.3645717126243462e-03,
          9.5146187288974449e-03, -1.9964288248831067e-02,
          -2.2016540652231138e-02, 5.3298399211792070e-03,
          2.3474842420069298e-02, -7.6633256683684529e-03,
          -5.4028395660330750e-03, -2.2887773259566375e-02,
          -2.8107782388393401e-03, -1.6822952011833842e-02,
          -2.9135206071562222e-03, -2.5426883449392711e-02,
          2.9872043591076234e-02, 2.3633423084858815e-02,
          -1.8252430405987011e-02, 1.8134369421618664e-02,
          2.8042494769045873e-02, -1.6447879057674565e-02,
          3.0257587828442251e-02, -3.8140160958350187e-03,
          -8.3560613859431053e-03, 8.7640912435933398e-03,
          -1.6310940583926996e-02, 1.8278486580892137e-02,
          2.5510808267275992e-02, -1.0090173902984714e-02,
          6.4099730537397655e-03, -2.7647614291739297e-02,
          2.3283469912675749e-02, 2.0107385953358162e-02,
          1.9230524111177448e-02, -1.1300619977913363e-02,
          1.6645482294705947e-02, 3.0496431815173818e-02,
          -1.7144930708358611e-02, -7.2553559979642631e-03,
          -1.6072318129318992e-02, -9.9246581689608655e-03,
          1.0249457143872022e-02, 3.0711465368818778e-02,
          -7.0814652037865244e-03, 1.5836505815758719e-03,
          -1.0328587199468718e-02, -9.6198786734663314e-03,
          -2.8054558014185646e-02, 1.6210512419988169e-02,
          8.0698674926853696e-04, 2.1065749079760710e-03,
          2.0485777886857581e-02, 2.7555594094331389e-02,
          -7.7546989236870853e-04, -2.2311418890697876e-02,
          2.5636491832071836e-02, -2.1806532543352714e-02,
          -2.4604891918193735e-03, 5.2322258099578639e-03,
          -1.1492122120070980e-02, 7.1653838523468016e-04,
          -2.0886801727521151e-02, -2.3365246522851324e-02,
          -1.5399643107630657e-02, -2.7952599930786345e-02,
          1.6364727353051015e-02, 1.7523180937143813e-02,
          3.4144580900593779e-03, -1.5375494274593077e-02,
          -1.1238846435532503e-02, 2.0995329074739600e-02,
          2.2558621760023611e-02, 1.4257187912252030e-02,
          3.6598831953737008e-03, -2.7688981178299620e-02,
          -2.9843750328640894e-02, 2.3515687998776204e-02,
          -1.3873890251704978e-02, 2.0746448450418623e-02,
          -7.3467479434573945e-03, -9.6453235159014890e-03,
          -2.4954323117099209e-02, -7.3774537430048963e-03,
          -2.5126974198668061e-02, -1.2181584671027656e-02,
          1.3478171572777309e-02, 2.5146601220778792e-02,
          3.9904718445907296e-03, 2.1349373870053503e-02,
          -5.5050387279647825e-03, 1.8536491183463982e-02,
          -1.9332939302382775e-02, 2.5542651285540688e-02,
          -1.7743751338594217e-02, 9.8008459794429494e-03,
          -1.9805927436291362e-02, -7.7609387695804031e-03,
          1.4153017250452267e-02, -5.6921623900717353e-04,
          1.2714407757892369e-02, 2.9969307919322102e-02,
          -5.3181322051663637e-03, -2.0966256941865657e-02,
          2.4038916906787902e-02, -3.4914138076339546e-03,
          6.1970072567195226e-04, -2.5963395292246616e-02,
          -1.5859375972790937e-02, 3.7737282660946377e-03,
          -1.5222179825766412e-02, 8.8794932217842321e-03,
          -5.9792755549378050e-03, -5.9358776546082695e-03,
          -4.3585865400364856e-04, 1.5673603201144092e-02,
          -6.7445856558645718e-03, 3.1874078562658448e-02,
          6.6511169370761678e-03, 4.9800958142346896e-03,
          -8.8595377869816368e-03, 2.6153571806366134e-02,
          -1.8650984943351771e-02, 2.2793157178356168e-02,
          -9.2270021763600982e-03, -8.9278333089064382e-03,
          2.0118471025718978e-02, -6.3329356000140615e-03,
          3.8183859633598724e-03, 2.5152946999856755e-02,
          -1.1177914385638518e-02, -2.1124727781308097e-02,
          -1.1431113944165750e-02, 9.4669347903733117e-03,
          2.9866519286948581e-02, -2.7568949985314934e-03,
          -2.8832537981794526e-02, -1.1195169907477046e-02,
          -1.0857937188773866e-02, -2.5326235740527114e-02,
          -3.0737551778528445e-02, 1.4971119875623841e-02,
          7.4831208801525440e-03, 6.5149624035864941e-03,
          1.4850378638873256e-02, -1.3938072877698682e-02,
          -2.7018802987753441e-03, 1.9458068496976681e-02,
          1.9774407543089460e-02, -2.1940595559069777e-02,
          -1.5063029884195120e-02, 2.7159044136304742e-02,
          2.1298595733686320e-02, -9.6014832941358557e-04,
          2.3497975227774297e-02, -2.7667373328888484e-02,
          -8.5735350300162015e-03, -1.6762371124992344e-02,
          8.4417855626156349e-03, -2.5269483318355036e-02,
          2.1260101432768932e-02, 1.5147998744759783e-02,
          -1.9956300784022923e-02, -2.0104764579085554e-02,
          -1.2650181676147237e-02, 1.0599300605554982e-02,
          -2.5082664558639667e-02, 1.2247697110295327e-03,
          1.7180660480371868e-02, 3.8990350050987269e-03,
          2.3202434286567531e-02, -4.2276208006837698e-03,
          2.4338936710842283e-02, 8.4962368977105473e-03,
          -9.2774048361913015e-03, 1.9423928671897458e-02,
          -1.0520333239543633e-02, -1.0480654847508658e-02,
          -2.3377269329628258e-02, 2.1646753128061778e-02,
          -1.4895842475423020e-02, 8.3517012475992757e-03,
          4.2997196306803409e-03, 3.1172813891782704e-02,
          -1.0934877332529029e-02, -6.9494498663710165e-03,
          1.2619017759659307e-02, -9.5063655700846489e-03,
          -1.4822837081664523e-02, 1.7860689081604708e-02,
          -1.1165569166649307e-03, 2.1343532295896982e-02,
          2.2726010566455863e-02, 1.9506145212853435e-02,
          -1.7293980531077550e-02, 1.2185108103196113e-02,
          1.8503612989091839e-02, 2.3301890219796419e-02,
          -1.1758316687337964e-02, 1.9609638014949124e-02,
          -2.1511251596903064e-02, 1.9712562293219035e-02,
          -1.3631196806892210e-03, -8.0161232831673333e-03,
          1.3684068896730042e-02, -9.1618842140297908e-03,
          1.4574937704394129e-02, -1.3789689196584114e-02,
          -6.4667920994732489e-03, -3.5515272907069430e-03,
          -2.3958618169699175e-03, 2.6506725160865448e-02,
          2.5805068555317345e-02, 2.4083046119930885e-02,
          -7.3224133397584417e-03, -1.5105184634362419e-02,
          -1.2917530547377723e-02, 2.0877570970449951e-02,
          1.3078126061605362e-02, -1.4019123746851556e-02,
          -1.5693897402012165e-02, 2.0881576279896071e-03,
          -1.0435830622310852e-02, -7.8436888868308133e-03,
          9.0189718360388343e-03, 1.5362023274539404e-02,
          8.3318010070018418e-04, 2.6250132385546514e-02,
          -2.1787598626737195e-02, -1.1996846941214157e-02,
          1.5290925601333473e-02, -2.6883380566208172e-03,
          -8.9417331627560416e-03, 2.1684492203560043e-02,
          6.7461596591820014e-03, -1.3909213345473690e-02,
          8.9524281380151133e-03, -1.0035753912157880e-02,
          1.4313983343309522e-02, 1.1485017427473631e-02,
          8.2413885317467617e-03, 2.2075156225782065e-02,
          -2.4042013257206712e-02, 2.1219441839957769e-02,
          2.6210001481454501e-02, -2.1601154255554346e-02,
          6.1929376570671914e-03, -9.9046976865452482e-03,
          1.5670810866948333e-02, -4.1772271613674423e-03,
          -3.3987777079075285e-02, -1.4397878095087333e-02,
          2.5451348929860250e-02, 8.0481143220428753e-03,
          1.7830466436005159e-02, 2.1062084362822569e-02,
          -1.9215533325422897e-02, -2.8359115459417050e-02,
          -2.1115429634329601e-02, 1.2719609793241961e-02,
          1.0837964909762210e-02, -3.2381084454937446e-02,
          1.4402253623588688e-02, 2.5657745138510664e-02,
          2.2216157665076758e-02, -1.7027704073259362e-02,
          3.3537672666035011e-03, 5.3459404795265985e-03,
          1.4348149033485628e-02, -1.3720801153563869e-02,
          -2.0760255776900416e-03, 1.1801257108641465e-02,
          1.7502603681840086e-02, -4.5086143248321059e-03,
          -1.2607974110821584e-02, 2.2926386353084506e-02,
          -2.4142134405052838e-02, 1.8458853819901439e-02,
          1.8196680218542104e-02, 2.0804504646949846e-02,
          2.1168371919465599e-02, 2.4372298062985101e-03,
          1.4419385124910863e-03, -2.5808213339801756e-02,
          1.7482340070244660e-02, 2.5359355183708184e-02,
          -1.7918738133754920e-03, 1.2883400644598648e-03,
          -1.9980228703467037e-02, 2.6667753275877920e-02,
          -3.0597002348391290e-02, -2.8587598365770621e-02,
          1.7165824599812408e-02, -1.0863117760651565e-02,
          -2.1611123463442107e-02, -4.1860324395429256e-03,
          -2.1721902078406893e-02, -1.1004901098856493e-02,
          -3.0518560546646093e-02, -1.6635714376147446e-02,
          3.2124022166497582e-02, -4.9896923381518672e-03,
          8.5551815376687997e-04, -2.9996004866999156e-02,
          2.0252947203837478e-02, -1.0960679113368860e-02,
          1.5016369214816149e-02, -2.1056425518940217e-02,
          1.7770350946241173e-02, -1.5979409436029029e-02,
          2.7275917918819868e-02, 1.7705752333189859e-02,
          3.2994921157000604e-03, -5.1765682685009319e-03,
          -2.3173795197386726e-02, 2.4928293907173649e-02,
          9.1261638451914841e-03, 1.3032412268839685e-02,
          5.9154302542959196e-03, 5.5824678649794542e-03,
          2.9546031723252271e-03, -2.7176317268115584e-02,
          1.5239231800732625e-02, -1.7532555609097722e-02,
          -1.0534186775698508e-02, -2.0557714834148949e-02,
          -1.6035974294841146e-02, 1.9847705406614898e-02,
          -1.8237272677052056e-02, 5.5624699405651249e-04,
          1.2592849036672064e-02, -1.6855884110853755e-02,
          -8.3606726413059107e-03, 4.4099289995759797e-03,
          1.9164568597391168e-02, 2.7311356419519577e-02,
          -2.2349108351782200e-02, 2.4185340887682406e-02,
          8.0211379538211083e-03, -1.3494747346672598e-02,
          2.0252979441699213e-02, -2.4679195448470688e-03,
          1.9223648236977423e-02, -1.2075186882496047e-02,
          3.7673299460954032e-03, 1.7373837397707245e-02,
          1.3915819120342954e-02, -1.0008833029037109e-02,
          -9.5005374980251800e-03, 2.1831025225008908e-02,
          -1.0493978401724644e-02, -2.6626177882714631e-02,
          2.2983075133098350e-02, -2.5060881046972426e-02,
          2.9269607898249828e-02, -1.5881958472019623e-02,
          8.4497452508377757e-03, 7.8003069458416254e-03,
          1.2836830366550013e-02, -1.7697222874925398e-02,
          -9.8850904142593361e-03, 1.3676381258474106e-02,
          1.9690010077055311e-02, 8.9472486682304429e-03,
          9.8208125870627959e-03, 2.5639406202809495e-02,
          -2.0886531467378011e-02, -4.5183887525816376e-03,
          1.9959026605064021e-02, 6.1404093017906171e-03,
          -1.3672726793890155e-02, -1.8401322713353273e-02,
          1.4668239329818772e-03, -3.0036930263588307e-02,
          -1.1265699377099357e-02, -1.4999224134674034e-02,
          -1.2079319623142327e-02, 3.1253069494721231e-02,
          4.5621977125077243e-03, -2.4292413658970381e-02,
          -2.5282583869717934e-03, -7.3382800305360407e-03,
          1.9385626086141427e-02, -1.5245355304317717e-03,
          -2.5531227869117893e-03, 1.5618774815367963e-02,
          -4.8912812555907455e-03, 1.1788636496889431e-02,
          2.8686349697985059e-02, 1.2285853188678784e-02,
          -2.5304549532859728e-02, 2.5165398626678215e-02,
          -9.2586752123777726e-03, 6.0129697207196081e-03,
          7.7015628866377653e-03, 1.1818698060007914e-02,
          -1.1989398885985481e-02, 1.2901935796091569e-03,
          -5.6326932697896648e-03, -1.6713667706864100e-02,
          -1.2795898293677886e-02, -2.3810017721425266e-02,
          2.5668162632023071e-03, 2.8597810303896323e-02,
          2.9693765687098111e-02, -2.0869805508043748e-02,
          -1.8912972514608023e-02, -2.5690250730453407e-02,
          2.6100066049451514e-02, -2.1790934229970450e-02,
          -2.1347796282421359e-02, 2.1630731971184380e-02,
          8.3168844943537438e-03, 1.3352249071530597e-02,
          -1.0148530996017811e-02, 8.4783689430840813e-03,
          1.7247493276000107e-02, 9.2946518679449461e-03,
          -1.4218679435342356e-02, -2.3763169782412039e-02,
          -2.3267887421564017e-02, -2.2219477662286644e-02,
          -1.7068621362527667e-02, -1.6496070956613762e-02,
          9.0819923988187754e-03, 2.1493702689644990e-02,
          -8.5643570249688376e-03, 3.5918397474255068e-03,
          -2.1708012494451093e-02, 1.7515782640496372e-02,
          1.2681531433600041e-02, 1.8427600018775948e-02,
          1.1262698678332060e-02, 3.1304415411425885e-03,
          1.5186581764635714e-03, 2.6986946489544736e-02,
          1.1799190112046326e-02, 3.3960653185162136e-02,
          1.5803066219937923e-02, -1.3347302837586034e-02,
          -2.8998874886891613e-02, -4.6636068378207515e-04,
          -1.0790893002519977e-02, -4.5471433536224846e-03,
          1.2642972758190155e-02, 1.4632296525327066e-02,
          2.2211736983491371e-02, 1.0179533062232529e-02,
          -6.1012979155672369e-03, -5.1830265640019418e-03,
          2.7796292200759565e-02, 6.9736776447684888e-03,
          1.9482051955478706e-03, 1.4314309983897494e-02,
          3.2517839672844061e-03, -2.5177707223545780e-02,
          -5.9115890317655712e-03, 1.9049820839866130e-02,
          1.1775835498317796e-03, 4.3275645278009495e-03,
          2.9246760446155123e-02, 2.1741415559233205e-02,
          -1.1616786856479443e-02, -2.3429179059588429e-02,
          -7.3573524450265436e-03, -7.6210599239948139e-04,
          -1.2324526873100511e-02, -2.4219386245115642e-02,
          -1.6227807539381335e-02, -1.4532290672648699e-02,
          2.5476305764360455e-02, 6.8231817100436690e-03,
          -3.0793095161172179e-02, -8.1506292233642415e-03,
          -1.1844734996739801e-02, -2.5411081540859266e-02,
          -2.8726369031978474e-02, -8.6476961491342222e-03,
          2.5557744426646798e-02, -1.1640017596532042e-02,
          -1.3180137035030148e-03, -1.5415371097620775e-02,
          -1.7399377354777212e-02, 1.1495618312533018e-02,
          1.2331323681270642e-02, -2.8865711582995459e-03,
          2.1263550341872061e-02, -2.3158828153618777e-02,
          9.4497570250759010e-03, 7.1381622206714707e-03,
          -2.7973666887376323e-02, 2.6705724282709866e-02,
          3.4334124715769659e-02, -3.7758918023222835e-04,
          1.2416945443662727e-02, 2.6116470059989846e-02,
          2.3912820783150782e-03, 1.7387352763686477e-02,
          2.3237733156056772e-02, -7.0681869514726443e-03,
          -3.0348444672131606e-02, -3.8279837591341502e-03,
          -4.3325383194196491e-03, -6.0133002703455932e-03,
          9.4966648086525825e-03, -2.2790064212094920e-02,
          -3.0450902816802700e-02, 1.8752072747548712e-02,
          3.0556349534822828e-02, -7.9304648925195931e-04,
          -1.3818962594690528e-02, 4.8776993915443665e-03,
          1.7032731449129694e-02, -1.2236781290491223e-02,
          -2.3610641340498520e-02, 2.7840171642054105e-02,
          3.1023755325897431e-02, 2.2497764168817207e-02,
          -7.7800811105857631e-03, -1.3160125974617295e-02,
          1.5516197638695210e-02, 1.4365369361487284e-02,
          -1.5258068674522467e-02, -1.8181650455680484e-02,
          -2.0314265067073609e-02, 2.7132200036130544e-03,
          6.4505578791793799e-04, -1.8307031695316181e-02,
          -8.5708942673157432e-03, -1.5081056553611706e-02,
          -1.1354175031886661e-02, 3.1998118056388532e-02,
          2.2195666960843536e-02, -1.8884095263119210e-02,
          -5.9906387130455908e-03, -2.7260664326238131e-02,
          2.5251707434196233e-02, 2.0389216067700631e-02,
          6.2812990160248479e-03, 6.6149006474751056e-03,
          1.8608411201680948e-02, -1.5986044340664238e-02,
          -1.6531001920765325e-02, 1.5869829077763943e-02,
          -2.3731036747632402e-03, 8.1191495538813462e-03,
          1.2201381338633032e-02, -1.0698525907609830e-02,
          1.9993226772299648e-03, -1.5279454088190758e-02,
          1.3327042022546009e-02, 1.3787190258074203e-03,
          -5.6841634292097275e-03, -1.9029856793920490e-02,
          -4.7921044639696328e-03, -3.4302955762692121e-02,
          -1.4530227398712108e-02, 1.1820282026179381e-02,
          1.1283512975731292e-03, -1.9857919926155486e-03,
          1.4470065051938262e-02, -8.5720008642938320e-04,
          -1.6863999039819767e-02, 2.3106019022994511e-03,
          -2.1798060875612445e-02, 7.9352546813036655e-03,
          -6.5759913603708545e-03, -6.4914251426582657e-03,
          -1.1256160285709948e-03, -7.4289644521673822e-03,
          -2.4676621239153509e-02, -3.2452089476991334e-03,
          -1.3882425363838798e-02, 1.6914587627394805e-02,
          3.0774697320509743e-03, 4.7846607869369562e-03,
          -1.0364786987119177e-02, -1.3633453496367586e-02,
          -1.5055571783839875e-02, 1.7146934037840143e-02,
          -2.3754495650979243e-02, 2.5832890466438687e-02,
          -2.3945729102588451e-02, 2.4821045426897864e-02,
          -1.6815442221247666e-02, -1.9144615352759600e-02,
          -1.5832869415092415e-02, 7.3687991794142227e-03,
          -7.6282676816167580e-03, 2.2133664784443944e-03,
          -1.4339318132191130e-02, -1.7183483978664459e-03,
          1.5282318297249135e-02, 5.3311189941336965e-03,
          7.5397622573327707e-03, 1.3129557267355041e-02,
          6.8398226454658984e-03, -1.9164511817245915e-02,
          -1.1802016547950423e-02, 1.9548365456967455e-02,
          1.7505190239840943e-02, -2.6753977030199345e-02,
          1.1476300200377380e-02, -1.0483812812982983e-02,
          -1.5612895850537535e-03, 1.6507343538528532e-02,
          -2.5097644787624215e-02, -1.1675845760282100e-02,
          -2.3597453055310892e-02, -4.2125948440439242e-03,
          6.6984257736373617e-03, 2.4194755669217330e-03,
          -2.3880348948104008e-02, -1.0676831884216411e-02,
          2.7095926820591736e-02, 1.6473431040353155e-02,
          1.9856695005977136e-02, 1.0015278261749184e-02,
          3.1241067084756827e-02, -2.5074609732306853e-03,
          1.3426882710622267e-02, -1.2293770419125953e-02,
          9.6841318129680214e-03, 8.5740162713541685e-05,
          3.1573565589217297e-03, 1.0642913574878184e-02,
          4.4361454633086786e-03, -2.3215672757922749e-02,
          -2.1036169100714007e-02, -2.4766518035585022e-02,
          2.4968908228828177e-02, 3.7278962541561077e-03,
          -1.4023709679828819e-02, -9.0252498825007799e-03,
          1.7148752848238292e-02, 5.9687484230820263e-03,
          7.2767926660633284e-03, 1.1110119664099632e-03,
          -2.3806800441448964e-02, 1.5132234542082521e-02,
          2.5188520072105196e-02, 2.5416388477713089e-02,
          -4.2872220253030464e-03, 4.8346394301123198e-03,
          1.4763227956502742e-02, -1.8597665999836407e-02,
          -1.6878107201884224e-02, -2.1394708221869535e-02,
          -7.8052790668010699e-03, -2.5462078342434323e-02,
          1.6577995348284694e-02, -1.8179382221134771e-02,
          -2.0672477025540901e-02, 1.0932814710126674e-02,
          -2.2256524536889272e-02, -1.9399298958582653e-02,
          1.1491142407537385e-02, -2.6928238226533813e-02,
          -1.5499852835500297e-02, -8.5850254463282259e-04,
          1.5605873332766463e-03, -8.9932907388244557e-03,
          -2.5984108817616630e-03, 1.6470159804644686e-02,
          1.4653277545263585e-03, 3.6405729314367306e-04,
          1.8098901110323546e-02, -2.3167273684323236e-02,
          2.3248526502185731e-03, -3.9627316038687359e-04,
          -2.5465556324372498e-02, -1.8707604397631035e-02,
          2.0117090913603378e-02, -1.4788375097019347e-02,
          -3.3441180597491792e-03, -1.0249220351269475e-02,
          2.1944351232292714e-02, 1.5275649001991735e-02,
          -3.4666124353740181e-03, -1.4697871436563616e-02,
          3.7441668264419710e-03, 5.3497691178533147e-03,
          1.0282704341605347e-02, 4.2210781371861666e-03,
          -9.4411654169005061e-04, -1.5006819766745434e-02,
          1.2529256919111057e-02, 1.8912257016299928e-02,
          -2.8022806905503572e-02, -9.0224502353055628e-03,
          -1.5993556975931408e-02, 1.4179611924236340e-02,
          2.9512819438775005e-02, -2.4969173577918936e-02,
          -8.3794949963369898e-03, -1.9417482387512775e-02,
          -7.6994823505695739e-03, -2.3099238867896815e-02,
          -1.1572659639413926e-03, -1.7335426225525120e-02,
          -2.1673868439869265e-02, 1.4764560468351886e-02,
          4.9807386899385327e-03, 6.0573470760237847e-03,
          -6.0822705728334940e-03, -3.0857304541629878e-02,
          -2.1123400982990616e-02, -2.1249537436137944e-02,
          -1.0915573554521456e-02, 1.7562983141610103e-02,
          -1.8623846144556224e-02, -4.1121638446454719e-03,
          3.2705500955289928e-03, 2.1162911299313466e-02,
          -3.1279019702534199e-03, 2.0023325981968652e-03,
          -3.9629339418441028e-03, -2.6841885066395767e-02,
          -3.0514071515187563e-02, -1.9908390195810671e-02,
          -1.8308290901077228e-02, 1.1108647437898128e-02,
          1.8222631933535027e-02, -2.3055062810398340e-02,
          -2.0004701186134340e-02, 2.8395962200536518e-02,
          -2.4834706820396603e-02, -2.4506873009072439e-02,
          -1.8676444152946330e-02, -1.6156751576063309e-02,
          -2.6490680052112386e-02, -1.1721873490224013e-02,
          -1.3342237002563768e-02, -1.9186343419630738e-02,
          1.8276774261372065e-02, 1.8906574048854229e-02,
          1.5244262249626930e-02, -1.8371933067326453e-02,
          -9.8315873081260014e-03, 9.5606646711630210e-03,
          8.7600076853216399e-03, -1.5683675005331851e-02,
          8.0925919417054477e-03, 2.3000503870082904e-02,
          1.5927261761559893e-02, -3.7584320356886551e-03,
          -1.5669630948594578e-02, -1.2731822608064208e-03,
          2.7570118735125278e-02, -7.2243132348054871e-03,
          -2.4148633404906850e-02, -2.0428302152026411e-02,
          2.3964035525455490e-02, -1.5176476975115318e-02,
          7.2577410357821691e-05, 1.7142905108285249e-02,
          -2.5823390436349000e-02, -3.6914470521050374e-02,
          -1.8417429036159379e-03, -4.9649915012895639e-03,
          2.7717005664075391e-02, 1.3888281938232791e-02,
          1.3679974069057032e-02, -9.3859250113317565e-03,
          2.2970964663490009e-02, 3.0130728271223355e-02,
          1.1041956286034467e-03, 8.7895376572425486e-03,
          7.2945496999087690e-03, 2.1923195767371929e-02,
          -2.5958704964515526e-02, 4.1861357591155730e-03,
          -4.2748791207891301e-03, 1.2513925295120701e-03,
          -1.2229135295964107e-03, 1.8442599810976616e-02,
          -2.3702338447777509e-02, 9.3215532505172161e-03,
          2.1696077788824795e-02, -4.6445486782443523e-03,
          -1.7753110097386716e-02, 2.4006227728871860e-02,
          -3.2325640109708537e-02, -7.1558305232419315e-04,
          2.7161308349112890e-02, 2.6674663090788486e-02,
          -2.5783669031630044e-02, -1.4338926294789202e-02,
          1.7197309079503797e-02, -2.6078868602425361e-02,
          -7.6704556879181084e-03, -2.0215538506971161e-02,
          -6.2243539962133646e-03, 3.3101386016619778e-03,
          1.1261218758343142e-02, -2.6212337676986542e-02,
          -5.5138090843896564e-03, -2.0404646250122286e-02,
          -1.5321502278325119e-02, 1.2586127322659115e-02,
          -2.0428475367332867e-02, -1.1197500967024206e-02,
          -2.8429283525223271e-03, -1.9869021140569050e-02,
          3.1678285595658044e-03, -2.1201489664757028e-02,
          -3.1632853949252866e-02, -1.1752183346229787e-02,
          1.8517392647967833e-02, 1.4982119812263777e-03,
          1.1844659386354968e-03, -1.4434742702071426e-02,
          -1.9006778400795902e-02, 5.7082859259481404e-04,
          5.7967046342670006e-03, 1.4896272961133383e-02,
          2.4353857517286825e-04, 2.4748394658408803e-02,
          -1.3022212361620190e-02, -1.3826901162504100e-02,
          1.3652674305886993e-02, -2.8365665173288535e-02,
          -2.3289988778293275e-02, 9.7110037248391134e-03,
          -2.5063138998825826e-02, 1.4439067084514576e-02,
          1.5282734752654325e-02, -2.1431259224431114e-02,
          2.5762247768622952e-03, 7.2700297002378355e-03,
          1.1069195829393693e-02, 7.1510833683313263e-03,
          1.9572316988614065e-02, 2.4998159103750951e-02,
          1.8846199028226294e-02, -2.6703724588448576e-04,
          -2.0399079012354430e-02, -2.2918808111468841e-03,
          2.6320316582283874e-02, 2.3592899930286220e-02,
          3.9966552041562214e-03, -2.3327293100926412e-02,
          3.4752468668193541e-03, 1.2622373461853708e-03,
          -2.1024086261840894e-02, -2.8387954521051511e-02,
          -8.7252859110580512e-03, 4.1219311042969666e-03,
          8.2205978737263218e-03, 1.7925282868874427e-03,
          3.9196785006638136e-03, 4.3029357377898725e-03,
          2.6739721327692784e-02, 2.2494482020415534e-02,
          2.1323679926055290e-02, -3.3409436102436442e-02,
          3.1658535415105993e-02, -1.8038127144235760e-02,
          -2.1815504278274011e-02, -1.3244087023789680e-02,
          -6.1282375460913596e-03, -1.9796600171310248e-02,
          1.4665284879735891e-02, 3.1327971403562659e-02,
          1.8130895731546522e-02, -2.9190531538450835e-02,
          -2.7262786925290220e-02, -8.9536900150184750e-04,
          -1.3852528544558864e-02, 2.8968299538645690e-02,
          1.4783098031599096e-02, -4.5710249846772849e-03,
          9.2690175711548552e-03, -3.0047608780649328e-03,
          -2.7349154589856747e-02, -8.8211355171661024e-03,
          1.2741915451852171e-02, -2.5405809472103025e-02,
          1.6566889278762324e-02, 3.4228368834146473e-03,
          -2.4365937119594765e-02, -1.2490069273318226e-03,
          3.2237718575118993e-02, -2.8340668753615749e-02,
          2.5409481740861422e-02, -7.0209352972531785e-03,
          -2.8715828436923735e-03, -1.5318048603471007e-03,
          2.2226622628140607e-02, 2.1634802283006806e-03,
          -2.6293570443153058e-02, -1.8812511820746662e-02,
          -1.8742936212477426e-02, -2.4024915323499867e-02,
          -2.2823781450801543e-02, 3.0913464865013115e-02,
          8.6760946723352921e-03, -1.2070745799409555e-02,
          2.0714953811646005e-02, 2.1567341758360337e-03,
          1.1942530097088195e-02, -1.4437219720047115e-02,
          -4.6643198254693093e-03, 1.4307984857306392e-02,
          -2.8270173003253574e-02, 2.2870523913522116e-02,
          -2.7840852642419200e-03, -8.8517506878959037e-03,
          5.0591620991857151e-03, -3.3316724839520466e-02,
          -2.1033201715844586e-02, -2.4671849875898027e-02,
          -2.5362368923681874e-02, 1.2353549350071612e-02,
          -1.5155251912389429e-02, 4.6673718016852191e-03,
          2.4762306405038528e-02, 4.3998666836412258e-03,
          2.4612296770001089e-02, -9.4177699404907819e-03,
          3.1626339061712086e-03, 1.5634548346997592e-02,
          -1.1718378802252202e-02, 5.7917995218133254e-03,
          -1.8600956097580140e-02, 1.6882371307674397e-02,
          5.9173447855638611e-03, -1.5916671106704538e-02,
          2.6592793965056856e-03, -1.5493349054898879e-02,
          1.5205531180045492e-02, -3.4610313893652491e-03,
          2.4644207695037699e-02, 1.9210867130137796e-02,
          7.7434436688902288e-03, -1.5005032677496451e-02,
          -1.5558417752669812e-02, -3.8298232364238965e-03,
          1.4113523268930268e-03, 8.8150671195992829e-03,
          -3.3602985843729838e-02, 4.8887952076050222e-03,
          -2.0121443915992261e-03, -8.5829653096568728e-03,
          1.0466279616798721e-03, 2.3741008721478208e-02,
          3.2151544343611269e-02, -3.3951681347484195e-04,
          2.7531358018401220e-02, -1.3392914979093564e-02,
          -2.0111075321926149e-03, 6.9041853209972871e-03,
          -1.9548733573842084e-02, 1.8622632515186675e-02,
          1.6594460275548745e-02, -2.0467094260783063e-02,
          -3.4043615512529446e-05, 1.5931374032080222e-02,
          4.4514226789792053e-03, 2.6435486265374390e-02,
          1.8112336818035969e-02, -1.4696409661597095e-02,
          1.0618883105103576e-03, 2.6865593065941765e-03,
          -2.2418800824566754e-02, 7.8508117385266939e-03,
          9.6439544573074173e-03, 2.3545506647845927e-02,
          -1.2397766175091285e-02, 1.6156846221087266e-02,
          1.0163582520055595e-02, 1.0299749450518637e-02,
          -8.0952847829406337e-03, 8.1719556176278792e-03,
          -1.0523408705216739e-02, -6.4503683450540285e-03,
          -1.5388256254209925e-05, 9.8588433913000158e-03,
          -1.3130571668703130e-02, -7.1159734622393651e-03,
          7.6710566184518747e-03, -9.4331995656401577e-03,
          1.9423725459385765e-02, 9.9136951644454921e-03,
          -1.4698810576175102e-02, 7.2252226299765404e-03,
          1.1678308007591860e-02, 2.5139952833984477e-03,
          2.0481390014417806e-02, -5.1812662482443378e-04,
          3.8006596784788786e-03, 8.4371128435442640e-03,
          -1.8176245733238103e-02, -2.7695254075350062e-02,
          -8.3943603948544790e-03, 4.4437892120114727e-03,
          -9.6510988956692856e-03, 2.4232481066418173e-02,
          -2.7242329530404806e-02, -5.4740107238080383e-03,
          -2.4291543944301761e-02, 2.4759114481814788e-02,
          -2.1506945280878237e-02, 9.4925150395632710e-03,
          -9.3413384432770915e-03, -1.2905907615363003e-02,
          2.7596415169195993e-03, -1.3511940044636617e-02,
          -2.7402891879415869e-02, -1.3599720253702095e-02,
          -2.4273762047067982e-02, -2.8434454191843792e-02,
          8.3296654652408823e-03, -1.8814765717794793e-02,
          -3.0879973857054335e-02, 1.5181327313275608e-02,
          -7.4454617831125067e-03, 2.8569274276142347e-02,
          -1.3015133118409671e-03, -2.2204906829279589e-02,
          -1.0602653860485648e-02, 2.4365804700638868e-02,
          1.4649367729885263e-03, -3.0518834208091161e-02,
          1.6491871799944491e-02, 1.5435918177403651e-02,
          2.4883721325713202e-03, -2.6472332367497575e-02,
          2.4162555074101505e-02, 1.2839924665774990e-02,
          4.2960990707816785e-04, 5.9593481991799240e-03,
          -1.8986822903912556e-02, -2.3258777255944722e-02,
          1.8504460471641119e-02, 2.9226874862086111e-02,
          1.2602513580626416e-02, -1.2922033024502129e-02,
          -1.6936304436697466e-02, 1.0855405784641963e-03,
          2.7790546651400273e-02, -6.0964330930574949e-03,
          -6.8689708709290236e-03, -2.2610429975061996e-03,
          4.5144256704559207e-03, -7.9736153742146348e-03,
          8.1303014448320717e-03, 2.2013519257746784e-02,
          -1.2240198652926752e-03, -8.9992506659374739e-03,
          -7.8717324120348173e-04, 1.1201334393210579e-02,
          1.6623488407207586e-02, 1.0744396176900579e-02,
          3.1770144895991108e-02, -1.5060272369354274e-02,
          -2.7518938386568194e-02, -1.2083511248762075e-02,
          -2.3067505668297100e-02, -2.5103108720455026e-03,
          1.5898577095479094e-02, 7.4089794096185088e-03,
          1.2795297458486858e-02, 1.5158180087671513e-02,
          2.7015647560811797e-02, 8.8860825708302286e-03,
          1.8186559400320133e-02, 1.3176257004278269e-03,
          8.8538354829873576e-03, -1.5958954365934579e-02,
          -1.8512304336298639e-02, -2.2280380286445248e-02,
          2.5534944926689156e-02, -1.4146982027050864e-02,
          -2.2697281334957686e-02, -7.4813374927597256e-03,
          -6.0655700931040845e-03, 2.8700448690146374e-02,
          1.4756683453878605e-03, -2.7911278927138575e-02,
          -7.5296940114847949e-03, -2.2338981573275653e-02,
          1.9126159698529023e-02, -4.9050119299191659e-03,
          -2.6221432595978776e-02, -2.3130745215874597e-02,
          2.2367711741880923e-02, -2.4050144956025282e-02,
          -3.1462307342292842e-02, -8.2191844149337055e-04,
          -1.1692417473247842e-02, 1.2327163233827067e-02,
          -1.0555501242942369e-02, 4.4568753964863480e-03,
          1.6897567264343119e-02, -2.5956868978010458e-02,
          3.6859899572870268e-03, 5.2479350371144699e-03,
          5.9924986968224736e-03, -1.1637635718793130e-03,
          -1.4543396368638798e-02, -2.3310143864177065e-02,
          1.4660268350909547e-02, 1.6511383284112304e-02,
          -2.0736636646677055e-02, -5.3461718140268002e-03,
          1.6443343535733250e-04, -1.1751108840590930e-02,
          -2.3215460360369370e-02, 2.5768809203382929e-02,
          4.4252571732346134e-03, -5.3930729154554359e-03,
          -6.8971897140574102e-03, 2.2638662093161142e-02,
          2.1615452715064917e-02, -1.2840761068267958e-02,
          -1.5279651912567215e-02, 2.3033910483327202e-02,
          2.0026945375034851e-02, -5.8597040927982789e-03,
          2.0753392200622715e-02, 3.5946817650485238e-03,
          2.4219602895375118e-02, 1.0202938333728654e-02,
          -2.9049103802011221e-02, -1.1130102518900505e-02,
          -2.2321133337765892e-02, 2.2979704627597141e-03,
          1.8767523216798473e-02, 2.7556371697857178e-02,
          -1.8771776736849183e-02, -1.4839451093369017e-02,
          2.9513722616205253e-02, 9.1429954856676598e-03,
          -1.2816801261541175e-02, -2.4160324201713768e-02,
          -2.1358802251784301e-02, 1.9886829013120919e-02,
          2.7699449992971543e-02, -4.2064539173896250e-03,
          1.7647936733105038e-02, 3.2626300775240140e-02,
          -3.0391873417665062e-03, -2.5037813597291445e-02,
          1.6500929551350220e-02, 4.9925257895258764e-03,
          2.5869877905655172e-02, 6.7505239595687600e-03,
          -1.2276328966102808e-02, 6.8999853329408840e-03,
          1.8985344371035318e-02, -1.6380351926010277e-02,
          3.9615128618047781e-03, -3.1511554900919260e-02,
          -8.7259709986918618e-04, 9.6562312873730068e-03,
          -1.1601631779482353e-02, -1.3120504371732119e-02,
          -8.8174158369202331e-03, -2.0516777482002046e-02,
          4.5260133759456251e-03, -2.6719326500203922e-03,
          -5.5651415349365248e-03, 9.6823324480243122e-03,
          1.1659741442995092e-02, 2.8924065974381772e-02,
          -2.8240482376333594e-02, -9.7103058671623894e-03,
          -2.3345857077719068e-02, 1.5070073998514403e-02,
          6.8734871584368818e-03, -1.2113433206921971e-02,
          8.6648569563931351e-03, 1.2224082389663347e-02,
          -2.2859223815358886e-02, 2.3769176488453040e-03,
          -1.3254066606100960e-03, -9.5798255161049419e-03,
          1.9462957993328069e-02, -1.6969950348072187e-02,
          -1.1653578990977154e-02, -2.6337614770058160e-03,
          1.0926575929190866e-02, -4.6356785049405684e-03,
          -2.3949836398982079e-02, -2.4775716229704297e-02,
          6.1067775161364329e-03, 3.5547556615222978e-02,
          8.0728671240086029e-03, -1.9759293510030817e-02,
          -3.5663798528382303e-03, -9.9523893705337832e-03,
          1.7249398342232956e-02, 3.0758344147539555e-03,
          1.9975716688488670e-02, 2.3490946075522209e-02,
          -3.5246265439936959e-03, -2.2210229905521225e-02,
          -1.6409565186265844e-02, 2.0137728299734096e-02,
          -5.1026746488203019e-03, -1.0565285625065403e-02,
          1.0459334882765776e-02, -1.5384472379836448e-03,
          2.5220388034612840e-02, 7.3643722481598903e-03,
          1.1525749940807203e-02, 1.1284498637668273e-02,
          4.5207132564130722e-03, 1.5731333643177541e-03,
          2.0987435953376758e-02, -3.3109255692055896e-02,
          1.1571867690187898e-02, 1.0898722891547336e-02,
          3.4599250543343174e-02, -3.9550541115985147e-03,
          -3.5292641861604045e-02, 3.0658713310238367e-02,
          -2.6623589492350778e-02, 2.2045734642941579e-02,
          1.1253493395639717e-02, -4.5177556332651478e-03,
          -2.3874677123612527e-02, -1.2695049831879789e-02,
          2.1019201735653997e-02, -1.9140060325106758e-02,
          3.4867378654244115e-02, 4.9945799684241680e-03,
          -2.2577199621756961e-02, 2.1435141101219718e-02,
          -2.2434890363376977e-02, -6.1564791963326961e-03,
          -1.0227904793063505e-02, -1.5010635828114318e-02,
          -2.1884389654786979e-02, 1.5335586726572321e-02,
          1.2302323659700945e-02, 1.5732373595695958e-04,
          1.8104240049240623e-02, 3.2082410055139714e-03,
          -9.1492521187883456e-03, 1.5506203740409018e-02,
          -1.7745528360231369e-02, 2.8745667713650395e-02,
          -2.5407028806663179e-02, -1.0594711977364729e-02,
          -5.2831754647645664e-03, -1.0217895497553024e-02,
          -7.3876417799190069e-05, -7.9802624315603986e-03,
          -7.5205422597238543e-03, -1.6358761087125716e-02,
          1.3550407968880270e-02, -2.1348918558347762e-02,
          2.3823818522262692e-02, -2.9800860736091499e-02,
          -1.9361048193112372e-02, -8.4550615289740293e-03,
          -2.8888224941999302e-02, -1.9823803190294571e-03,
          7.0557542130391185e-03, -1.3761748314665987e-02,
          -5.9239910269027378e-04, -6.0372449813537090e-03,
          -1.9880587979884443e-02, -2.5262541572475049e-02,
          -4.1002260626764988e-03, 3.3868071532445285e-03,
          1.5175026457723654e-02, 4.2004973125486780e-03,
          1.4711807570374703e-02, -1.2290989711161918e-02,
          1.2172882012036049e-02, 1.0726753227744482e-02,
          5.6762546752126492e-03, 1.1915925567425418e-02,
          -8.6940979259662720e-03, -1.1323646904288748e-02,
          2.3004825915592442e-02, -2.4694152933906633e-02,
          1.7691519947478702e-02, -2.2459615113980435e-02,
          -6.7115893350492180e-03, -1.1909994189018518e-02,
          1.5464226072398240e-02, 1.6269029679484358e-02,
          2.5620480380144951e-02, 2.3528261165400206e-02,
          -1.6518846857581409e-02, 2.5201311205439701e-02,
          2.2044448642576271e-02, 4.6884232499056806e-04,
          8.8009425441756481e-03, 2.3712813500966417e-02,
          -4.6118546767880894e-03, -7.6427312701693613e-04,
          -3.0810078551720961e-03, -2.1090903222847252e-02,
          -1.7099820687032977e-02, 2.5538923574185877e-02,
          4.4199878476103181e-03, 1.9404625844100052e-02,
          2.0080099547784389e-03, 2.4121154515228338e-02,
          -2.2419105615940561e-02, -1.1868950412349666e-02,
          -1.1788635568538800e-02, -1.9522534072980512e-02,
          1.3402268303221752e-02, -2.7062139358261607e-02,
          1.4523995184837409e-02, -1.0841924890618842e-02,
          -2.1911640591465102e-02, 1.0081845004071752e-02,
          1.7170795690866793e-02, -1.2967850424057034e-02,
          -2.0734933245563945e-02, -2.5979609768293055e-02,
          5.0890279188007008e-03, 1.9707516471590334e-02,
          -2.9748538992807258e-03, 1.6093909762129707e-02,
          -1.9442032042608796e-02, 1.5659484848898557e-02,
          -9.9244457845501736e-03, 1.6241358144977937e-02,
          4.5482425820057466e-03, -5.7675285187045551e-03,
          3.1023165482050231e-02, 6.4086758617451370e-03,
          1.5754264937880690e-02, 2.6479127028698105e-02,
          1.9872943990202747e-02, 2.1566735512000425e-02,
          1.0389070151452516e-02, 8.6286223934143487e-03,
          -2.3536820972260043e-02, -1.3219929132734894e-02,
          -2.0900261431427553e-02, -2.0641572683612046e-02,
          -2.4246411438345258e-02, 2.6576050229081122e-02,
          -8.6113697815975304e-03, -4.8046425649156121e-03,
          3.5703199984578162e-03, -5.0079177307121719e-03,
          3.3616669688571132e-02, -2.1861156271804388e-02,
          -1.2369744635247900e-02, 9.0487528394356145e-04,
          1.9520652367625561e-02, 1.5329964943092453e-02,
          2.2878275852081759e-02, 2.3223196338589637e-02,
          2.1831823499958755e-02, -4.5509044008210792e-03,
          -1.2226496007106114e-03, -6.6131077338832493e-03,
          -1.1792269463333454e-05, 2.2245706757565650e-02,
          1.2374515491293068e-02, 1.7610334716194633e-02,
          -1.2786643601684676e-02, -2.0962864959387716e-02,
          7.8420350004017817e-03, -3.9793511649007206e-03,
          7.7287668508651587e-04, -1.7245157705152676e-02,
          1.2595190634259469e-02, -2.4925828487914817e-02,
          -1.5729713135675484e-02, 9.2296093317864331e-03,
          2.6566886922418195e-02, -7.6896217396696231e-03,
          8.0262873637542784e-03, -8.5098847105234531e-03,
          1.5367594712761095e-02, 1.2858044804523353e-02,
          -1.0466577929093930e-02, 1.6524746809192161e-02,
          3.1000401946575187e-02, 9.3198532874692631e-03,
          9.0502870954091376e-04, 6.3978015546335178e-03,
          2.7340281714913050e-02, 3.0302547274955446e-02,
          7.0802974177410199e-03, 1.8931739195675989e-02,
          -3.1455755707926927e-02, 3.1855759615452453e-03,
          -8.0526453710283111e-03, -8.8045625036343462e-03,
          -1.0513187859986175e-02, 2.0737154316004213e-02,
          2.4790215935993277e-02, 1.3339577095145829e-02,
          -1.8002846083624443e-03, 7.8914754483022983e-03,
          1.2831521327452857e-02, -2.5260599381489196e-02,
          8.9200460828383950e-03, -2.1107836345564100e-02,
          -2.3840075793360439e-02, 1.4946734078829233e-02,
          -5.7554607830697761e-03, 2.1401745919219783e-02,
          -6.6428522881380380e-03, -2.3880585935114391e-02,
          1.6168450994251453e-02, -8.1866546001718409e-03,
          -1.2346670988858303e-02, 6.9241196200039755e-03,
          -1.5630898019037644e-02, 1.5359382225484230e-03,
          2.3638308914929432e-03, -1.1239914231087089e-02,
          -2.1714435392415812e-02, -2.1098866976050731e-02,
          1.1333697813176976e-02, 2.4225272103577829e-02,
          2.6397325641674472e-03, -8.8422201005829875e-05,
          -2.1974018371952599e-02, -1.9648991525783092e-02,
          -4.0387559782133480e-05, -1.0009091879418590e-02,
          6.6485551733137306e-04, 4.2329989645518368e-03,
          -7.9002352701693940e-03, -2.4360687178979892e-02,
          -2.2131194496089204e-02, 9.4441371761608169e-03,
          -1.5480518781272950e-02, 2.4235868454490671e-02,
          -6.7828186581955167e-03, -2.1107391969173182e-02,
          8.1402903706865488e-03, -1.4616350641378954e-02,
          -4.1333253055363230e-03, 4.9690388729495332e-03,
          1.9107367722800517e-02, -1.6825830082837293e-02,
          1.4266072772307169e-02, 1.8998358538132896e-02,
          2.6005500369321519e-02, -2.5169498300893347e-02,
          1.8449282734656812e-02, 1.0144339566047903e-02,
          -1.5072746630128975e-02, 2.8865320177122875e-02,
          9.0568280125240454e-03, 1.5732570562198348e-02,
          2.3413937920067104e-03, -2.2754407923481455e-02,
          1.9639924177138245e-02, -9.2956723741415004e-03,
          8.4064815071932715e-04, -2.4657259380084010e-02,
          1.6079325579445164e-02, 6.8170842775386346e-03,
          -2.7518222884142979e-02, 1.0103423478988665e-02,
          1.9288835279626688e-03, 2.1147378199836083e-02,
          2.7113064410547977e-02, 2.5728777235654126e-02,
          -2.2235660773579136e-02, 2.3598089525888412e-02,
          1.3925665317196854e-02, 1.7160919989606876e-02,
          6.3833316422039592e-03, -1.9863959319516185e-02,
          -6.3430059097253251e-03, 1.8315212234450297e-02,
          3.5126112292089709e-03, 1.6378005458782405e-02,
          -1.8701816029815174e-02, 7.3161627297207267e-03,
          1.4716623705040510e-02, -2.3767275833901744e-02,
          -2.5132487889493658e-02, 1.4944846455913633e-02,
          -1.3906585215643604e-02, 5.9520300554836009e-03,
          1.1695870651304112e-02, 1.6679661850777881e-02,
          -1.8419275767569670e-02, -2.2796306541085345e-02,
          -1.6986061712684498e-02, 2.5961872207740804e-02,
          -2.6798116212943125e-02, 1.5208475397252997e-02,
          -1.2015726245527068e-02, -1.2991525674392209e-02,
          -6.6100841998636686e-03, -4.0699174620758144e-03,
          -6.3749343512616297e-03, 1.5268030195366768e-02,
          -4.4414447049957086e-03, 1.9640398413358190e-03,
          7.5120417803787231e-03, -1.6714533935081221e-02,
          -1.6920920650621955e-02, 7.0811974968783345e-03,
          5.2239477152550224e-03, 2.0419760504197765e-03,
          -4.2394627556241538e-03, 2.0462597809828453e-02,
          -1.6225128218061784e-03, 2.0357222885307842e-02,
          2.0191588439205151e-02, -2.9630939695315144e-02,
          -2.8983256856874168e-02, -2.0735476530866857e-02,
          8.5525099260766388e-03, 2.6992127484187691e-02,
          -2.1721199469934626e-02, -5.2083807007106671e-04,
          -1.0879747101377990e-02, -8.8936052400666789e-03,
          -1.4539651650194090e-02, -2.7061708485879660e-02,
          2.4436138656814519e-02, -1.2353627596948372e-02,
          -1.9156264251455304e-02, -7.7420472408396349e-03,
          -4.9863479539522760e-03, -1.3581463003469537e-02,
          -1.6847185302794419e-02, 1.7173731979460073e-02,
          -8.7550939982857026e-03, -1.4571498770441938e-02,
          -4.1779745435785061e-03, -2.8184648255773007e-02,
          -2.5988279416204876e-02, 2.0383764620264572e-03,
          1.8620625927265499e-02, -1.2461106515878361e-03,
          2.1715115746310517e-02, -1.9201721298013497e-02,
          9.8981108044850653e-03, 2.1034716510424184e-02,
          -6.0499459784298651e-03, 1.4639800902500099e-02,
          1.5307440314076356e-04, 2.1423351950361623e-02,
          -8.4116645363953042e-03, -1.8409311714051555e-02,
          2.1475316943070828e-02, -1.5549999619354674e-02,
          1.8990843006897021e-02, -1.9992536699642554e-02,
          -1.1054976867948209e-02, 2.6506805354665340e-02,
          -2.6372944960646523e-02, 1.8425837337081981e-02,
          -6.6140202014612339e-03, 1.0914219641143320e-02,
          1.7841978436511346e-02, -4.6669993453809294e-03,
          -2.5392659406657848e-02, -7.5826354053980874e-03,
          -8.5921357536049500e-03, -9.9041338183863872e-03,
          1.2400501998179440e-02, 7.3107614634054822e-03,
          -2.7588127666804785e-02, -1.1617462937803255e-02,
          -1.7374871141886350e-02, 2.9011444440062897e-02,
          2.1579907026983199e-02, 1.3045802953194666e-02,
          2.0815375513326472e-02, -2.3648499547989286e-02,
          -3.7023856453886816e-03, 8.5290256759922110e-03,
          2.7892729071933804e-02, 1.4621068042032842e-02,
          2.6872906428710604e-03, -2.3656302606025772e-02,
          -5.1359629742369003e-03, 3.2948788239611578e-03,
          1.1543493458533366e-02, 2.4752342822210865e-02,
          -2.3459052645179945e-02, -1.1415742159681349e-02,
          4.3053024371937339e-03, 7.2227958534966498e-03,
          -1.3996603880454076e-02, -1.2700905455457353e-02,
          2.6759563262653580e-02, 1.1214111571486444e-02,
          -9.7390739559696377e-03, -1.7776928366593066e-02,
          5.1135784220834165e-03, 2.0055991291897789e-02,
          -5.8105579328494921e-03, 6.0050800264706428e-03,
          1.9291086496415099e-02, 5.8372927146597489e-03,
          1.2187082592843963e-02, -1.0199228040392614e-02,
          -1.9073093627279495e-03, -2.8154754536281498e-03,
          9.9766518865523693e-03, -1.3319697853361968e-02,
          -1.5685013194173869e-02, 5.6471754513299595e-03,
          -2.2641915340958281e-02, 1.4512793238065263e-03,
          7.5126746787621910e-03, -8.0831994634747197e-03,
          1.7902653406338110e-02, -1.7701030464804576e-02,
          1.4976014037951834e-03, 2.7127742770943309e-02,
          -6.4909331323062675e-03, 1.8059813805001060e-02,
          1.8101252471659106e-02, -5.9602164553932456e-03,
          -3.2183493116370837e-02, -8.4575507007983476e-03,
          1.2101660531573357e-02, 1.8334782142286947e-02,
          -4.6317043102628774e-03, 9.4918689032640544e-03,
          -4.1551872335161234e-03, 2.0548131276610427e-03,
          -1.5351861472737960e-02, 2.3406452662163642e-03,
          -1.2322747665238103e-02, 1.1717933321693390e-02,
          -1.4980328112850315e-02, -5.8980790505352232e-03,
          3.2675798053567813e-03, -1.2598809794214906e-02,
          1.9939943625388246e-02, 6.2869383779038260e-03,
          1.1157539148793316e-02, 7.1150945097747820e-03,
          1.6087293089655143e-02, -1.0201818709508370e-02,
          -2.7261164964430193e-02, 1.9784941301832875e-02,
          -2.4875242560630602e-03, -1.1642289564184005e-02,
          1.4886831600955934e-02, 1.8657800583660504e-02,
          -2.3070323126301383e-02, 8.2825913682853577e-03,
          -9.4682022500851507e-03, -1.9657043593786637e-02,
          1.5409173287105400e-02, -2.1659528064111776e-02,
          2.2961412799044141e-03, -2.7026615477452200e-02,
