%YAML:1.0
my_svm: !!opencv-ml-svm
   svm_type: C_SVC
   kernel: { type:LINEAR }
   C: 1.
   term_criteria: { epsilon:1.1920928955078125e-07, iterations:1000 }
   var_all: 70
   var_count: 70
   class_count: 3
   class_labels: !!opencv-matrix
      rows: 1
      cols: 3
      dt: i
      data: [ 1, 2, 3 ]
   sv_total: 3
   support_vectors:
      - [ 5.72006628e-02, -1.09828025e-01, -1.59497336e-01,
          4.29829508e-02, 2.04625875e-02, 1.08120637e-02,
          -9.04782861e-02, -1.40618697e-01, 3.84793356e-02,
          2.09346935e-02, 3.05570737e-02, -1.09633282e-01,
          -1.63622126e-01, 4.87228148e-02, -2.91953593e-01,
          2.06128106e-01, -1.23178557e-01, -1.47504926e-01,
          4.56265919e-02, 5.74058369e-02, 5.07266000e-02,
          -9.91719216e-02, -1.56790361e-01, 4.30848822e-02,
          3.93172959e-03, 1.24947719e-01, -4.43738364e-02,
          -6.65292442e-02, 1.78448446e-02, -2.97822416e-01,
          1.67142481e-01, -1.65925398e-02, -1.63778607e-02,
          3.67715163e-03, -2.75443736e-02, -1.11474814e-02,
          -5.70659675e-02, -8.01377371e-02, 1.90470070e-02,
          -2.04855613e-02, -2.76747681e-02, -4.58857641e-02,
          -6.23944923e-02, 1.49449790e-02, -2.68225279e-02,
          1.15787424e-01, -9.38766599e-02, -1.62160769e-01,
          5.18698581e-02, -2.70532340e-01, 4.54290248e-02,
          -6.56364560e-02, -8.09623897e-02, 2.16977745e-02,
          -4.81841713e-01, 1.24430098e-01, -1.09683841e-01,
          -1.63128406e-01, 4.77956198e-02, 7.78539553e-02,
          -1.93090420e-02, -6.07313551e-02, -8.18505883e-02,
          2.17038877e-02, -9.98128951e-02, 4.21771966e-02,
          -8.59139636e-02, -1.30590051e-01, 3.52618210e-02,
          -2.05592081e-01 ]
      - [ -1.50324836e-01, -1.06949113e-01, -1.97843179e-01,
          4.43131514e-02, 2.75039077e-01, -1.79911375e-01,
          -9.66280401e-02, -1.80565834e-01, 4.00379822e-02,
          2.05524057e-01, -1.84333712e-01, -1.00216307e-01,
          -1.85696140e-01, 4.14905883e-02, 6.72696158e-02,
          -1.25552177e-01, -5.27377427e-02, -1.03683263e-01,
          2.34830100e-02, 8.64222273e-02, -1.55818313e-01,
          -1.05206639e-01, -1.98069334e-01, 4.45339978e-02,
          1.41259804e-01, -2.12909952e-01, -4.22259793e-02,
          -7.65800178e-02, 1.47196269e-02, 9.95945632e-02,
          -1.15824662e-01, -7.11834570e-03, -1.12831481e-02,
          1.73415465e-03, 3.40840936e-01, -1.55190989e-01,
          -5.12277037e-02, -9.13785771e-02, 1.97192598e-02,
          6.85801283e-02, -1.58762753e-01, -3.65561508e-02,
          -6.44800812e-02, 1.35842999e-02, 5.92903867e-02,
          -1.53840169e-01, -9.37910900e-02, -1.73329443e-01,
          3.94052081e-02, 2.94979922e-02, -1.47065192e-01,
          -6.78234622e-02, -1.21245362e-01, 2.63148155e-02,
          4.79989015e-02, -2.76457313e-02, -1.03009708e-01,
          -2.19284177e-01, 5.92818409e-02, -4.19617556e-02,
          -1.44038141e-01, -8.71463642e-02, -1.65626511e-01,
          3.85945030e-02, 1.09734707e-01, -1.29063040e-01,
          -9.97427180e-02, -1.93900868e-01, 4.48411629e-02,
          -1.14345789e-01 ]
      - [ -1.18830152e-01, 2.74284906e-03, -2.53284629e-02,
          8.12608458e-04, 1.65790379e-01, -1.27605677e-01,
          3.16681643e-03, -2.18766909e-02, -4.01148049e-04,
          1.29805386e-01, -1.35675907e-01, 1.47260809e-02,
          -6.97840564e-03, -7.35980319e-03, 2.30367213e-01,
          -1.67405590e-01, 2.25655939e-02, -1.54750049e-02,
          -3.26615502e-03, -1.11212414e-02, -1.30474806e-01,
          2.00269930e-03, -2.38003321e-02, 1.57390037e-04,
          7.25883693e-02, -2.04934165e-01, -7.21131358e-03,
          -1.44389337e-02, -1.24388811e-04, 2.95624137e-01,
          -1.82231575e-01, 2.94631720e-03, 1.76898006e-03,
          -9.32225492e-04, 2.13302180e-01, -9.10790041e-02,
          1.33432001e-02, 9.06708930e-03, -3.54809989e-03,
          6.74577132e-02, -8.74155462e-02, 1.41652655e-02,
          1.35177523e-02, -4.43961378e-03, 6.79440424e-02,
          -1.75464317e-01, 2.33126315e-03, -2.97028618e-03,
          -1.06122652e-02, 2.04891503e-01, -1.19531929e-01,
          7.11001782e-03, -2.05374192e-02, 1.28930190e-03,
          3.45491737e-01, -8.75902474e-02, 9.48274508e-03,
          -1.69057567e-02, 2.35440396e-03, 3.32589038e-02,
          -8.13762471e-02, -6.91722054e-03, -5.05232029e-02,
          9.66999587e-03, 1.01040639e-01, -1.14337936e-01,
          1.03081904e-04, -3.41996588e-02, 4.36609052e-03,
          4.49189581e-02 ]
   decision_functions:
      -
         sv_count: 1
         rho: -1.1334510049087578e+00
         alpha: [ 1. ]
         index: [ 0 ]
      -
         sv_count: 1
         rho: -7.4825632753802118e-01
         alpha: [ 1. ]
         index: [ 1 ]
      -
         sv_count: 1
         rho: 3.8773027021039763e-01
         alpha: [ 1. ]
         index: [ 2 ]
