%YAML:1.0
my_svm: !!opencv-ml-svm
   svm_type: C_SVC
   kernel: { type:LINEAR }
   C: 1.
   term_criteria: { epsilon:1.1920928955078125e-07, iterations:1000 }
   var_all: 70
   var_count: 70
   class_count: 4
   class_labels: !!opencv-matrix
      rows: 1
      cols: 4
      dt: i
      data: [ 1, 2, 3, 4 ]
   sv_total: 6
   support_vectors:
      - [ -1.50324836e-01, -1.06949113e-01, -1.97843179e-01,
          4.43131514e-02, 2.75039077e-01, -1.79911375e-01,
          -9.66280401e-02, -1.80565834e-01, 4.00379822e-02,
          2.05524057e-01, -1.84333712e-01, -1.00216307e-01,
          -1.85696140e-01, 4.14905883e-02, 6.72696158e-02,
          -1.25552177e-01, -5.27377427e-02, -1.03683263e-01,
          2.34830100e-02, 8.64222273e-02, -1.55818313e-01,
          -1.05206639e-01, -1.98069334e-01, 4.45339978e-02,
          1.41259804e-01, -2.12909952e-01, -4.22259793e-02,
          -7.65800178e-02, 1.47196269e-02, 9.95945632e-02,
          -1.15824662e-01, -7.11834570e-03, -1.12831481e-02,
          1.73415465e-03, 3.40840936e-01, -1.55190989e-01,
          -5.12277037e-02, -9.13785771e-02, 1.97192598e-02,
          6.85801283e-02, -1.58762753e-01, -3.65561508e-02,
          -6.44800812e-02, 1.35842999e-02, 5.92903867e-02,
          -1.53840169e-01, -9.37910900e-02, -1.73329443e-01,
          3.94052081e-02, 2.94979922e-02, -1.47065192e-01,
          -6.78234622e-02, -1.21245362e-01, 2.63148155e-02,
          4.79989015e-02, -2.76457313e-02, -1.03009708e-01,
          -2.19284177e-01, 5.92818409e-02, -4.19617556e-02,
          -1.44038141e-01, -8.71463642e-02, -1.65626511e-01,
          3.85945030e-02, 1.09734707e-01, -1.29063040e-01,
          -9.97427180e-02, -1.93900868e-01, 4.48411629e-02,
          -1.14345789e-01 ]
      - [ 5.72006628e-02, -1.09828025e-01, -1.59497336e-01,
          4.29829508e-02, 2.04625875e-02, 1.08120637e-02,
          -9.04782861e-02, -1.40618697e-01, 3.84793356e-02,
          2.09346935e-02, 3.05570737e-02, -1.09633282e-01,
          -1.63622126e-01, 4.87228148e-02, -2.91953593e-01,
          2.06128106e-01, -1.23178557e-01, -1.47504926e-01,
          4.56265919e-02, 5.74058369e-02, 5.07266000e-02,
          -9.91719216e-02, -1.56790361e-01, 4.30848822e-02,
          3.93172959e-03, 1.24947719e-01, -4.43738364e-02,
          -6.65292442e-02, 1.78448446e-02, -2.97822416e-01,
          1.67142481e-01, -1.65925398e-02, -1.63778607e-02,
          3.67715163e-03, -2.75443736e-02, -1.11474814e-02,
          -5.70659675e-02, -8.01377371e-02, 1.90470070e-02,
          -2.04855613e-02, -2.76747681e-02, -4.58857641e-02,
          -6.23944923e-02, 1.49449790e-02, -2.68225279e-02,
          1.15787424e-01, -9.38766599e-02, -1.62160769e-01,
          5.18698581e-02, -2.70532340e-01, 4.54290248e-02,
          -6.56364560e-02, -8.09623897e-02, 2.16977745e-02,
          -4.81841713e-01, 1.24430098e-01, -1.09683841e-01,
          -1.63128406e-01, 4.77956198e-02, 7.78539553e-02,
          -1.93090420e-02, -6.07313551e-02, -8.18505883e-02,
          2.17038877e-02, -9.98128951e-02, 4.21771966e-02,
          -8.59139636e-02, -1.30590051e-01, 3.52618210e-02,
          -2.05592081e-01 ]
      - [ 1.00369729e-01, -6.37872666e-02, -7.56326839e-02,
          2.09551174e-02, 3.78269330e-02, 1.11017497e-02,
          -3.54996510e-02, -5.22812232e-02, 1.44452518e-02,
          2.66852491e-02, 4.95276600e-02, -4.05637324e-02,
          -5.47534712e-02, 1.65601503e-02, -1.59915507e-01,
          1.41222075e-01, -6.30930737e-02, -6.04828894e-02,
          1.78659838e-02, -5.57500683e-02, 6.21191189e-02,
          -4.23696898e-02, -6.38208613e-02, 1.85416527e-02,
          -6.98723346e-02, 1.28013194e-01, -4.92504165e-02,
          -4.58053015e-02, 1.28347641e-02, 4.50237393e-02,
          1.25439614e-01, -1.94678996e-02, -1.07704364e-02,
          2.63256067e-03, 1.05651714e-01, 2.35959589e-02,
          -1.57599580e-02, 9.54367162e-04, 3.51753610e-04,
          9.32027120e-03, -2.44666939e-03, -1.10092284e-02,
          7.27769593e-03, -1.04561495e-03, 2.37059072e-02,
          9.62640718e-02, -5.27796820e-02, -6.16858117e-02,
          1.82197765e-02, -1.63981766e-01, 6.55859187e-02,
          -1.67572759e-02, -1.66887697e-02, 4.93131066e-03,
          -2.79087156e-01, 1.41862959e-01, -7.08138496e-02,
          -5.34258336e-02, 2.03711875e-02, 3.90528828e-01,
          5.78932464e-03, -6.63856929e-03, -1.14969332e-02,
          2.81865592e-03, -1.75199077e-01, 3.72628272e-02,
          -2.44861245e-02, -2.93215085e-02, 8.10844824e-03,
          -1.66920394e-01 ]
      - [ 1.18830152e-01, -2.74284952e-03, 2.53284629e-02,
          -8.12608632e-04, -1.65790379e-01, 1.27605677e-01,
          -3.16681527e-03, 2.18766928e-02, 4.01147467e-04,
          -1.29805386e-01, 1.35675907e-01, -1.47260791e-02,
          6.97840843e-03, 7.35980226e-03, -2.30367213e-01,
          1.67405605e-01, -2.25655977e-02, 1.54749965e-02,
          3.26615735e-03, 1.11212526e-02, 1.30474806e-01,
          -2.00269860e-03, 2.38003321e-02, -1.57390386e-04,
          -7.25883693e-02, 2.04934165e-01, 7.21131172e-03,
          1.44389328e-02, 1.24389044e-04, -2.95624137e-01,
          1.82231575e-01, -2.94631789e-03, -1.76897994e-03,
          9.32225492e-04, -2.13302165e-01, 9.10789967e-02,
          -1.33431982e-02, -9.06708557e-03, 3.54809919e-03,
          -6.74577057e-02, 8.74155387e-02, -1.41652646e-02,
          -1.35177495e-02, 4.43961285e-03, -6.79440349e-02,
          1.75464317e-01, -2.33126339e-03, 2.97028827e-03,
          1.06122643e-02, -2.04891488e-01, 1.19531929e-01,
          -7.11001642e-03, 2.05374211e-02, -1.28930237e-03,
          -3.45491737e-01, 8.75902474e-02, -9.48274601e-03,
          1.69057585e-02, -2.35440442e-03, -3.32588777e-02,
          8.13762471e-02, 6.91722240e-03, 5.05232066e-02,
          -9.66999680e-03, -1.01040646e-01, 1.14337929e-01,
          -1.03080296e-04, 3.41996588e-02, -4.36609145e-03,
          -4.49189469e-02 ]
      - [ 1.17512882e-01, -6.95872121e-03, 2.22986750e-02,
          -1.96156837e-03, -7.03406110e-02, 6.43313080e-02,
          9.18568578e-03, 3.31991091e-02, -5.23907598e-03,
          -6.07813634e-02, 9.34428945e-02, 7.13955984e-03,
          3.28845344e-02, -4.11957689e-03, -1.34377718e-01,
          1.43462628e-01, -2.48580314e-02, -8.09351727e-03,
          5.85018750e-03, -7.32638827e-03, 9.25424621e-02,
          7.42149539e-03, 3.06820888e-02, -3.78113566e-03,
          -9.68948603e-02, 1.60583735e-01, -1.88580155e-02,
          -8.97122838e-04, 3.04813148e-03, -8.87987018e-03,
          1.23086929e-01, -1.09040830e-02, -2.38005235e-03,
          1.05336192e-03, -2.45826114e-02, 6.42402396e-02,
          5.78055345e-03, 3.43285725e-02, -6.74738223e-03,
          -1.89465266e-02, 4.90805805e-02, 3.60244000e-03,
          2.82038748e-02, -5.35104098e-03, -4.95593646e-04,
          1.16461255e-01, -4.06853296e-03, 2.37169955e-02,
          -2.25040736e-03, -1.27832010e-01, 9.16776732e-02,
          1.20683443e-02, 3.50050628e-02, -6.48624403e-03,
          -2.15004712e-01, 1.00280352e-01, -1.68960281e-02,
          3.89541127e-02, -5.73752448e-03, 2.89943635e-01,
          4.85560894e-02, 2.63901800e-02, 5.66948801e-02,
          -1.28879910e-02, -1.61269158e-01, 6.57620803e-02,
          1.81025900e-02, 5.54097593e-02, -1.19735096e-02,
          -2.89526246e-02 ]
      - [ 0., 0., 0., 0., 0., 0., 0., 0., 0., 0., 0., 0., 0., 0., 0., 0.,
          0., 0., 0., 0., 0., 0., 0., 0., 0., 0., 0., 0., 0., 0., 0., 0.,
          0., 0., 0., 0., 0., 0., 0., 0., 0., 0., 0., 0., 0., 0., 0., 0.,
          0., 0., 0., 0., 0., 0., 0., 0., 0., 0., 0., 0., 0., 0., 0., 0.,
          0., 0., 0., 0., 0., 0. ]
   decision_functions:
      -
         sv_count: 1
         rho: -7.4825632753802118e-01
         alpha: [ 1. ]
         index: [ 0 ]
      -
         sv_count: 1
         rho: -1.1334510049087578e+00
         alpha: [ 1. ]
         index: [ 1 ]
      -
         sv_count: 1
         rho: -4.4564621657595627e-01
         alpha: [ 1. ]
         index: [ 2 ]
      -
         sv_count: 1
         rho: -3.8773022384425893e-01
         alpha: [ 1. ]
         index: [ 3 ]
      -
         sv_count: 1
         rho: -1.6297782658692972e-03
         alpha: [ 1. ]
         index: [ 4 ]
      -
         sv_count: 1
         rho: -1.
         alpha: [ 1. ]
         index: [ 5 ]
